const float fc1_weight [] = { -0.04475218802690506,-0.020039625465869904,-0.004667018074542284,-0.04594559967517853,-0.016164597123861313,-0.046900369226932526,-0.04293673485517502,-0.02815806120634079,-0.0028818557038903236,-0.05575721710920334,0.003797343000769615,-0.01920974627137184,0.0067764450795948505,-0.003267635591328144,-0.014602918177843094,-0.008003219030797482,-0.009484846144914627,-0.01636067032814026,-0.03372462838888168,0.004600932355970144,-0.01574525237083435,-0.026234444230794907,-0.04190785437822342,-0.018187742680311203,-0.039396531879901886,-0.05761072039604187,-0.047467559576034546,0.009037509560585022,-0.03193283826112747,0.0020317924208939075,-0.048246219754219055,-0.0540037676692009,-0.008386586792767048,0.00798804871737957,-0.04631136357784271,-0.0007857797900214791,0.002412487519904971,-0.05114954710006714,0.00027534650871530175,-0.009277940727770329,-0.051587823778390884,-0.035842183977365494,-0.0076167769730091095,-0.034502945840358734,-0.018421676009893417,-0.030162444338202477,-0.035898152738809586,-0.03779304400086403,-0.0377131849527359,-0.012456981465220451,-0.03913663700222969,-0.04028391093015671,-0.02323649451136589,-0.03894326835870743,-0.051034942269325256,-0.02870076708495617,-0.006183544173836708,-0.023657355457544327,0.006280610337853432,-0.05273909494280815,-0.03895685449242592,-0.02985122799873352,-0.026695184409618378,0.00026079703820869327,-0.005895808804780245,-0.022483153268694878,-0.05683405324816704,-0.006803614553064108,-0.06667371094226837,-0.02990405634045601,-0.025326572358608246,-0.015737904235720634,-0.010408075526356697,-0.01531924121081829,0.0018155387369915843,-0.03218422085046768,-0.011183391325175762,-0.0630548745393753,-0.04388664290308952,-0.020731549710035324,-0.016644246876239777,-0.031025810167193413,-0.009667549282312393,-0.010249508544802666,-0.02155575528740883,0.01120143011212349,-0.012503547593951225,-0.04487253352999687,-0.012778213247656822,-0.01608465239405632,-0.03647807985544205,-0.03302612900733948,-0.0015841111307963729,-0.016856325790286064,-0.045987870544195175,-0.0281931534409523,0.017015382647514343,-0.0429779589176178,-0.03975581377744675,-0.013450322672724724,-0.03858114778995514,-0.044455286115407944,-0.040661394596099854,-0.039528004825115204,-0.00915250089019537,-0.05396897345781326,-0.04964142292737961,-0.04438948631286621,-0.02168947458267212,-0.040350291877985,-0.025504784658551216,0.011944765225052834,-0.042179688811302185,-0.01630406640470028,-0.010803744196891785,0.013278096914291382,-0.03388206660747528,-0.007078496739268303,0.002450239611789584,-0.020142702385783195,0.019477084279060364,-0.013055829331278801,0.03812390938401222,0.0826023668050766,0.0542735829949379,0.03653865307569504,0.026263119652867317,0.03477931395173073,0.006629358045756817,-0.004415706731379032,-0.02004248835146427,-0.03805446997284889,-0.056902505457401276,-0.05797545611858368,-0.04012035205960274,-0.057585518807172775,0.008572534658014774,0.023111596703529358,-0.026706766337156296,-0.058004673570394516,-0.0468071848154068,-0.05154508352279663,-0.0529802031815052,-0.04305582493543625,0.00533377006649971,-0.015140357427299023,-0.035784102976322174,-0.015271560288965702,-0.015146395191550255,0.020097464323043823,0.019435543566942215,0.09103190153837204,0.08134801685810089,0.04697795584797859,0.0317508839070797,0.02794313244521618,0.01189025305211544,0.046673666685819626,-0.033687934279441833,0.002692584181204438,0.027446167543530464,0.007231204304844141,-0.03432277962565422,-0.06000145897269249,-0.01062588021159172,-0.03179679438471794,-0.01768534630537033,-0.05952497199177742,-0.019182667136192322,-0.04909401759505272,-0.032197289168834686,-0.025992529466748238,0.01152968779206276,0.030939161777496338,0.0044694868847727776,0.010856273584067822,0.03827511519193649,0.040586698800325394,0.03736076131463051,0.026684945449233055,0.05474940687417984,-0.0020925248973071575,0.024181073531508446,0.04869265854358673,0.010972699150443077,-0.014223122969269753,0.030694473534822464,0.03739325329661369,0.02511933632194996,0.014126778580248356,-0.03940127044916153,-0.02756664901971817,0.036215219646692276,0.009876064024865627,0.011128510348498821,0.01096944510936737,-0.02836284227669239,-0.03792751580476761,-0.044993434101343155,-0.0512903556227684,-0.00012900351430289447,0.01741381734609604,0.04709794372320175,0.006324362475425005,0.08850197494029999,0.05476498603820801,0.06098273769021034,0.04474380239844322,0.025613510981202126,-0.007696227636188269,0.006743164733052254,0.011498344130814075,0.014331260696053505,0.02302440255880356,-0.0018057671841233969,0.0067331911996006966,0.01910734735429287,-0.011254996061325073,0.01028804574161768,0.04093429446220398,0.0222121924161911,0.007289635017514229,0.012355584651231766,-0.007347508799284697,-0.0025832250248640776,-0.02552155777812004,-0.04077111929655075,-0.007426037918776274,0.0016388805815950036,0.007750862743705511,0.024862822145223618,0.03327023983001709,0.011054922826588154,0.045821662992239,0.04483910650014877,0.0010214883368462324,0.0269261933863163,0.059441693127155304,0.061568811535835266,0.01860652305185795,0.04541334509849548,0.01720253936946392,0.04628947749733925,0.020941225811839104,-0.0019548882264643908,0.002933348063379526,0.00913549866527319,0.01612277328968048,0.01920834183692932,0.0322304368019104,0.0050532217137515545,-0.035032354295253754,0.0007664809818379581,-0.03361345827579498,-0.04347668215632439,-0.004134095273911953,-0.015783704817295074,0.0180450938642025,0.03387705236673355,0.06609565764665604,0.06765728443861008,0.06865911185741425,0.06591435521841049,0.021050643175840378,0.045395612716674805,0.053253792226314545,0.014737255871295929,-0.00915074534714222,0.012199019081890583,0.01243822742253542,-0.006841236725449562,-0.024065393954515457,-0.014214109629392624,-0.0200593750923872,0.03196971118450165,0.04453819990158081,0.07985028624534607,0.0945708379149437,0.02210833504796028,-0.03499363362789154,-0.045648809522390366,-0.016974477097392082,-0.0017984870355576277,-0.025257183238863945,0.025799579918384552,0.018254296854138374,0.05919136106967926,0.04435921460390091,0.00416093785315752,0.021681390702724457,0.05094578489661217,0.06220922991633415,0.047492608428001404,0.031322870403528214,0.0770038366317749,0.04398563876748085,0.011666162870824337,0.022402262315154076,0.044395897537469864,-0.012911718338727951,0.012956534512341022,-0.010813448578119278,0.0008576823747716844,0.020959453657269478,0.03353958576917648,0.06003039330244064,-0.023986466228961945,-0.025477616116404533,-0.022579871118068695,-0.03430767357349396,-0.039140839129686356,0.016038158908486366,0.033541057258844376,0.020705247297883034,0.007133141625672579,0.03956977650523186,-0.00800858624279499,-0.01979062147438526,-0.0031111619900912046,-0.0045294552110135555,0.006214670371264219,0.04684615135192871,0.0804934874176979,0.02078891359269619,-0.03536422550678253,0.0025846771895885468,0.03839900717139244,0.011677083559334278,0.0055912816897034645,-0.04699821025133133,-0.028539273887872696,-0.01844019442796707,0.05495922267436981,0.08093269914388657,-0.01577843725681305,-0.039339929819107056,-0.01992902345955372,-0.05635349079966545,-0.05045914277434349,0.0035029712598770857,0.057540394365787506,0.06645062565803528,-0.025395750999450684,-0.013337839394807816,-0.03080340102314949,-0.0565955825150013,0.011743299663066864,-0.040459129959344864,0.02209506556391716,0.04993989318609238,0.029529228806495667,0.02343292161822319,0.01751498132944107,0.023985188454389572,-0.008444532752037048,0.027728455141186714,-0.008121391758322716,-0.004751099273562431,-0.023328645154833794,-0.002043671440333128,-0.05103307217359543,0.022271202877163887,0.04058288782835007,-0.0417453795671463,-0.029710806906223297,0.0008102490101009607,-0.0494835339486599,-0.03631714731454849,-0.019337262958288193,-0.010139638558030128,-0.08177395910024643,-0.07661841809749603,-0.06513474136590958,-0.061978720128536224,-0.049719952046871185,-0.022962182760238647,0.0482051707804203,0.07364464551210403,0.06516934186220169,0.03764914348721504,0.0057899849489331245,0.02590818889439106,0.009939763695001602,0.004992906004190445,0.020135922357439995,-0.003982418682426214,-0.013859444297850132,-0.04374595731496811,-0.035950303077697754,0.012525246478617191,-0.025492187589406967,-0.049313563853502274,-0.05668453127145767,-0.032952774316072464,-0.02431507594883442,-0.04101955518126488,0.003383339149877429,-0.07176901400089264,-0.06924008578062057,-0.06796751916408539,-0.04924483597278595,-0.05398591607809067,-0.026794558390975,0.008255859836935997,-0.005244864150881767,0.04391740262508392,0.043093517422676086,0.0096384072676301,-0.015137591399252415,-0.011355464346706867,-0.020956728607416153,-0.025511085987091064,-0.03677237033843994,-0.004133840091526508,-0.03174309432506561,-0.05899050459265709,-0.016099970787763596,0.0007117887726053596,-0.008071654476225376,-0.03539065271615982,-0.018019873648881912,-0.0009602783247828484,-0.0449226088821888,0.005914222914725542,0.01721528172492981,-0.0899660512804985,-0.0952785313129425,-0.0796184167265892,-0.02361934445798397,-0.0657011866569519,-0.029887743294239044,-0.0429634191095829,-0.014805492013692856,0.04535389319062233,0.017196470871567726,-0.01707666739821434,-0.013729051686823368,-0.05413242429494858,-0.02647128887474537,0.0180993489921093,0.0065392786636948586,-0.014411411248147488,0.020270412787795067,-0.029226282611489296,0.014782874844968319,-0.008734974078834057,-0.041909925639629364,-0.007525988854467869,-0.027867913246154785,-0.0244535431265831,-0.021307623013854027,0.026213085278868675,0.019724387675523758,-0.10436133295297623,-0.05074775964021683,-0.08415254950523376,-0.08150364458560944,-0.07889960706233978,-0.0539252832531929,-0.0806976705789566,0.0034343970473855734,-0.0319923497736454,-0.024241749197244644,-0.04800673946738243,-0.04859039932489395,-0.037330761551856995,-0.027730854228138924,0.03162257373332977,0.0002288948599016294,0.018877249211072922,0.017822599038481712,0.017588479444384575,0.0421496219933033,-0.03610590472817421,-0.016049077734351158,-0.024080099537968636,-0.041645027697086334,-0.02494707703590393,-0.0015731188468635082,0.015949593856930733,0.037325549870729446,-0.03806797415018082,-0.04072554036974907,-0.01554174069315195,-0.03347037732601166,-0.04235989600419998,-0.026211364194750786,-0.03853192180395126,-0.006254049018025398,-0.05906355753540993,-0.025554407387971878,-0.011500628665089607,-0.02341051585972309,0.019008859992027283,-0.045971740037202835,-0.011885251849889755,-0.018259909003973007,0.02091471292078495,-0.03157733753323555,0.048352934420108795,-0.006235469598323107,-0.05502524971961975,-0.03907002508640289,-0.017834419384598732,-0.026798592880368233,-0.017259690910577774,-0.03549174219369888,0.035158440470695496,0.021727751940488815,0.04651052504777908,0.08215130120515823,-0.024378737434744835,-0.06710860133171082,-0.039478179067373276,-0.04729145020246506,-0.02672077715396881,-0.04257868230342865,-0.008716936223208904,-0.05821726471185684,-0.01922435499727726,-0.005682139657437801,0.0008765815291553736,-0.03768152743577957,0.014122817665338516,0.0018811019835993648,-0.001575467293150723,0.05316700041294098,0.052998825907707214,-0.0025156678166240454,-0.05018923804163933,-0.0240422822535038,0.012147807516157627,-0.054414551705121994,-0.018177412450313568,-0.04260331392288208,0.0006697042845189571,0.025784313678741455,0.07889045774936676,0.06917499005794525,0.04763141646981239,-0.006469630636274815,0.002301812171936035,-0.043631162494421005,-0.03801194205880165,-0.024787379428744316,-0.03593115881085396,-0.01770474575459957,-0.0055771879851818085,0.007223238702863455,0.01248877588659525,-0.010410723276436329,0.0338798388838768,0.05323690548539162,0.006815211847424507,0.009072288870811462,0.01553256157785654,0.0007533261668868363,-0.03948482871055603,-0.00897081196308136,-0.024727625772356987,-0.0022415784187614918,-0.052379168570041656,-0.003087308257818222,-0.029353994876146317,0.016946570947766304,0.0826585590839386,0.06900058686733246,0.005065991077572107,0.057951491326093674,-0.023823389783501625,-0.0015580556355416775,-0.05759299546480179,-0.0495719313621521,-0.04815010726451874,-0.01629623956978321,-0.025252332910895348,-0.011727678589522839,-0.0022581990342587233,0.024910643696784973,0.04403027147054672,0.03570675849914551,0.03522854670882225,0.05793403089046478,0.0732307881116867,0.015216156840324402,0.0008587919874116778,-0.0577840693295002,0.0052188122645020485,-0.03574078530073166,0.008408734574913979,0.00782310776412487,0.01290484145283699,0.015781817957758904,0.028408437967300415,0.029556091874837875,0.0431356243789196,-0.011890715919435024,-0.04077563062310219,-0.03985597938299179,-0.02629239112138748,-0.054989688098430634,-0.05237245187163353,-0.02774449996650219,0.012786798179149628,-0.015006092377007008,-0.009906090795993805,0.008556049317121506,-0.0087642977014184,0.015156961977481842,0.018819143995642662,0.0051344712264835835,0.028469625860452652,-0.044275689870119095,-0.006050787400454283,-0.027018718421459198,-0.033787015825510025,-0.016052501276135445,-0.02250085212290287,0.014022552408277988,-0.030517395585775375,0.0073225237429142,0.024292346090078354,0.027160359546542168,0.027442006394267082,0.018137099221348763,0.03370619937777519,0.01604715920984745,0.02883721888065338,-0.02072923444211483,-0.003057219786569476,0.03491586074233055,0.00758501049131155,0.01272739190608263,-0.014527390711009502,0.02369682304561138,0.016344962641596794,0.04429873451590538,-0.006699657998979092,-0.020673416554927826,0.04558464512228966,0.017375264316797256,0.010330133140087128,-0.04219154641032219,-0.0347767136991024,-0.0330902636051178,-0.012978024780750275,-0.050038181245326996,0.017171211540699005,-0.005289840511977673,0.033768512308597565,0.02642362006008625,0.020453035831451416,0.051498085260391235,0.00947982631623745,0.05075971037149429,0.036205727607011795,0.025100378319621086,0.022802673280239105,-0.014658988453447819,-0.0009357142262160778,0.03883780539035797,-0.01249317079782486,-0.019625356420874596,0.020910438150167465,-0.00024852241040207446,-0.009620243683457375,0.017524588853120804,0.0009463661117479205,-0.005754711572080851,-0.015132053755223751,-0.055061016231775284,-0.01605423539876938,-0.05564621835947037,-0.0261148139834404,-0.03404207155108452,0.02188005857169628,0.00594249926507473,0.007468817755579948,-0.02725016511976719,-0.013943767175078392,0.002653275616466999,0.039855364710092545,0.016379518434405327,0.008919456042349339,0.042187124490737915,0.0403141975402832,0.023424683138728142,0.06854888051748276,0.059618622064590454,0.02710598148405552,0.038872383534908295,0.05205034092068672,-0.01521791610866785,0.0011308561079204082,-0.044007282704114914,-0.03606867417693138,-0.030541036278009415,-0.05539195239543915,0.0021111273672431707,-0.01687496528029442,-0.046349719166755676,-0.042340077459812164,-0.028186215087771416,0.006530895829200745,-0.047701723873615265,-0.06221933290362358,-0.034371521323919296,0.04045552760362625,0.02855103276669979,0.0521114356815815,0.09541334211826324,0.06560713052749634,0.09472529590129852,0.07251239567995071,0.05188266932964325,0.044668905436992645,0.033881086856126785,0.048361312597990036,0.004253095481544733,0.007140682078897953,-0.011524421162903309,-0.040279570966959,-0.023208709433674812,0.0008954462828114629,-0.0328078418970108,0.0013352815294638276,-0.03226977959275246,-0.04474098980426788,-0.006728147156536579,-0.028985347598791122,-0.00954841636121273,-0.007439959794282913,-0.042755331844091415,0.004843248054385185,-0.04145872965455055,-0.031695809215307236,-0.050870705395936966,-0.049608103930950165,-0.042765192687511444,0.004213810432702303,-0.00042174916598014534,0.019781507551670074,0.00808493047952652,-0.0008601791923865676,-0.026667485013604164,0.007533024065196514,-0.02620917744934559,0.014539066702127457,0.01773557811975479,0.01501397229731083,-0.04394078999757767,-0.038603026419878006,0.005748463794589043,-0.006603951100260019,-0.0091596320271492,-0.0314067080616951,-0.04187420755624771,-0.009968820959329605,-0.0014970385236665606,-0.05580566078424454,-0.026214977726340294,-0.018271606415510178,-0.047599371522665024,-0.0487297847867012,-0.025851059705018997,-0.0525456964969635,-0.04813660308718681,-0.004312433768063784,-0.0020356036256998777,-0.05392057076096535,0.002895177574828267,-0.047216277569532394,-0.04749676212668419,0.011156857013702393,-0.002809657948091626,0.00918874703347683,-0.019659189507365227,0.011626211926341057,0.004526716191321611,-0.04280757158994675,-0.032091956585645676,0.004121467936784029,-0.005201031919568777,-0.02729705348610878,0.0074404459446668625,0.005058788228780031,-0.03794221952557564,-0.024572374299168587,-0.0494244210422039,-0.026784123852849007,-0.026641270145773888,0.0009468274656683207,-0.03470124304294586,-0.02309529297053814,0.015783609822392464,-0.0201727245002985,-0.040626250207424164,0.018325824290513992,-0.02940535731613636,-0.02400362677872181,-0.019376737996935844,-0.030705774202942848,-0.016250334680080414,-0.012821238487958908,0.016975054517388344,-0.01701710745692253,0.01562181394547224,-0.05177697166800499,-0.020680410787463188,-0.008424549363553524,-0.012425540015101433,-0.035049811005592346,0.0006845315219834447,0.017778677865862846,-0.021230271086096764,-0.021530376747250557,0.003312008688226342,0.010444444604218006,0.0036897200625389814,-0.008795864880084991,-0.011560538783669472,-0.02367437444627285,0.009679604321718216,-0.01332200039178133,0.0059578861109912395,-0.05432548746466637,0.004277109168469906,-0.030550755560398102,-0.05965277552604675,-0.03369143232703209,-0.00010416637815069407,-0.04170971363782883,-0.014510291628539562,-0.01456274650990963,-0.05230278521776199,-0.044494349509477615,0.016708308830857277,-0.04227445274591446,-0.031772732734680176,-0.03299607336521149,-0.03192616626620293,-0.00897990632802248,-0.04033077135682106,-0.024360695853829384,-0.02065950445830822,-0.027817605063319206,-0.027095427736639977,0.007961970753967762,-0.050966255366802216,-0.04407372325658798,-0.054906684905290604,-0.019984647631645203,-0.04727472737431526,-0.023577002808451653,-0.042635418474674225,-0.0038615285884588957,-0.013416278176009655,-0.033027149736881256,0.005002609919756651,-0.02225371263921261,-0.04643537104129791,-0.02149403654038906,-0.041437774896621704,0.007328708656132221,1.875403722806368e-05,-0.04452056810259819,-0.027097446843981743,-0.027637815102934837,-0.04581749066710472,-0.052181780338287354,0.013324025087058544,-0.028332306072115898,-0.029795290902256966,0.0232437364757061,0.0050757466815412045,0.01554531417787075,-0.020774107426404953,-0.04208996519446373,-0.021126676350831985,-0.01221594586968422,-0.02024305798113346,0.020214172080159187,0.01855664886534214,-0.01532420702278614,-0.013879277743399143,-0.004183138720691204,0.04541921243071556,0.04177410900592804,0.038425855338573456,0.0021713837049901485,0.0137495631352067,0.020730039104819298,-0.03950115293264389,-0.017601758241653442,-0.0008370564901269972,-0.023490888997912407,0.01319137867540121,-0.009180372580885887,-0.011144219897687435,-0.013731623068451881,-0.0008585542673245072,-0.008187411352992058,-0.014117714017629623,0.019232910126447678,-0.02266046591103077,-0.037506066262722015,0.03694580867886543,0.0013838951708748937,0.056688230484724045,-0.0018019466660916805,-0.014160706661641598,0.021405791863799095,-0.004445004276931286,-0.01744155026972294,-0.016154151409864426,0.007287424057722092,-0.021204788237810135,0.01744905486702919,-0.02440282702445984,-0.0588420033454895,0.012361997738480568,-0.0007328782230615616,-0.048018988221883774,-0.046496011316776276,0.010510509833693504,0.005395807325839996,0.006031499709933996,-0.03204924613237381,-0.038970522582530975,-0.0049026659689843655,-0.00477804709225893,0.02670566365122795,0.036163315176963806,0.04580806568264961,0.01661011017858982,0.04568228870630264,0.0471024326980114,0.008638320490717888,-0.030756669119000435,-0.015282156877219677,-0.0239593256264925,-0.014215736649930477,-0.05119595304131508,-0.002084319479763508,-0.004994233604520559,-0.062271591275930405,-0.07066109776496887,-0.04967930167913437,-0.0012572120176628232,0.011563443578779697,-0.031883180141448975,-0.045571815222501755,-0.0457659475505352,0.012016072869300842,-0.04446084424853325,-0.004123682156205177,-0.021676963195204735,0.006432168185710907,0.020820675417780876,0.03589460998773575,0.04574033245444298,0.05838361009955406,-0.00452148262411356,0.061174336820840836,0.06035970523953438,0.055589403957128525,0.012858089059591293,0.041594475507736206,0.03387448936700821,-0.003926725592464209,0.037425559014081955,0.0031172740273177624,0.010510725900530815,-0.06530982255935669,-0.036835890263319016,-0.03067839704453945,0.023606043308973312,-0.012460109777748585,-0.018900809809565544,-0.02259165421128273,-0.04420214891433716,-0.009005727246403694,-0.010690762661397457,-0.03474841266870499,-0.013644998893141747,-0.026424922049045563,-0.018509963527321815,0.012692647986114025,0.012461939826607704,1.254247035831213e-05,0.009912117384374142,0.012753402814269066,-0.006110589485615492,0.045415446162223816,0.03650090843439102,0.03571835532784462,0.04882794991135597,0.042975377291440964,0.008979897946119308,0.00517963757738471,0.025896988809108734,-0.04691363871097565,-0.024453047662973404,-0.049306079745292664,-0.021488409489393234,0.014042160473763943,0.005213533528149128,-0.03691753000020981,-0.03475244715809822,-0.0010125255212187767,0.007844247855246067,-0.03957456722855568,0.014912371523678303,-0.028102044016122818,0.044641971588134766,0.04488442465662956,0.053759340196847916,-0.002932146890088916,0.030249979346990585,0.030072851106524467,-0.002023083157837391,0.036294497549533844,0.010374779812991619,-0.0010174488415941596,0.002982559846714139,-0.03892140090465546,-0.013809999451041222,-0.009340058080852032,0.01477949321269989,0.015868177637457848,0.01146406214684248,-0.018244531005620956,0.02264796569943428,-0.014761303551495075,0.013740121386945248,0.012931041419506073,-0.02583596110343933,-0.041886042803525925,-0.024868108332157135,-0.01642659492790699,-0.007392724975943565,-0.030608078464865685,0.05507645756006241,0.04959176108241081,0.007739438209682703,0.01638941466808319,0.02907555364072323,-0.015812892466783524,-0.005002863705158234,-0.03274884447455406,0.013511604629456997,-0.013169587589800358,-0.0154037494212389,0.012675434350967407,-0.001818865886889398,0.02265210822224617,0.0335865318775177,0.012784022837877274,0.009202907793223858,-0.017665598541498184,-0.007021819707006216,0.050062913447618484,0.01584426313638687,-0.03678238019347191,-0.027691075578331947,0.004986742977052927,-0.04688267037272453,-0.011198829859495163,-0.007732524070888758,-0.00023138226242735982,-0.012286984361708164,0.02201499603688717,0.0165881235152483,0.010962543077766895,-0.014608277939260006,0.0014725615037605166,-0.013635833747684956,0.030295630916953087,0.0002715130103752017,0.04442073404788971,0.0030645434744656086,0.010193134658038616,-0.010478781536221504,0.032122690230607986,-0.013317880220711231,-0.0011652754619717598,0.005683545954525471,0.009407796896994114,0.02635100670158863,0.05731391906738281,-0.007852696813642979,-0.04921985790133476,-0.009969091974198818,0.010614757426083088,-0.010364609770476818,0.017299456521868706,0.04326431080698967,-0.010066519491374493,-0.006776907481253147,-0.03757252171635628,-0.021129824221134186,-0.0027926741167902946,0.000513582956045866,0.01690412499010563,0.02695244550704956,0.08689463883638382,0.07693325728178024,0.04313036799430847,0.017398694530129433,0.007370454259216785,0.04445544630289078,0.011794357560575008,0.016114378347992897,-0.01508332323282957,-0.04270191490650177,-0.01145907212048769,0.015092930756509304,0.031966716051101685,-0.0059143975377082825,-0.020568758249282837,-0.0386047437787056,-0.031951189041137695,-0.010792664252221584,-0.015121961012482643,0.0615750215947628,0.044050540775060654,-0.05883658304810524,0.014685800299048424,-0.03565768152475357,-0.007216935977339745,0.011491984128952026,0.009976969100534916,0.03891211375594139,0.017520569264888763,0.10209260135889053,0.06912043690681458,0.03832364082336426,0.06331484019756317,0.0407760925590992,0.04397948831319809,0.016081005334854126,-0.01718025840818882,-0.05127691105008125,-0.023336948826909065,-0.04479153826832771,-0.03577577322721481,-0.0016330768121406436,-0.027768703177571297,-0.01885709911584854,0.00975101813673973,-0.041591379791498184,-0.0071200719103217125,-0.015957746654748917,0.01901879534125328,-0.03772049769759178,-0.05996258929371834,-0.005959045607596636,0.001594714936800301,-0.029435325413942337,-0.004717318806797266,0.04270828887820244,0.029954293742775917,0.06185094267129898,0.07988841831684113,0.019500408321619034,0.03837035596370697,0.01428633090108633,0.001002958044409752,0.014587442390620708,-0.05248517543077469,-0.03485175222158432,-0.06676353514194489,-0.07703617960214615,-0.018328877165913582,-0.03714592754840851,-0.052004773169755936,-0.02269824966788292,0.007719952147454023,-0.016842352226376534,-0.0060752881690859795,0.00440793763846159,-0.04960755258798599,-0.07497153431177139,-0.08438321948051453,-0.026166370138525963,-0.05220393091440201,0.004228547215461731,-0.010274224914610386,0.01509932428598404,0.022965025156736374,0.08322236686944962,0.051796093583106995,0.017184555530548096,0.0035487941931933165,0.04603314399719238,-0.033197835087776184,-0.04092548415064812,-0.049546707421541214,-0.03438468649983406,-0.0691431313753128,-0.04649166762828827,-0.06171170622110367,-0.009594549424946308,-0.02242288924753666,-0.04352930560708046,-0.027577517554163933,0.0026202669832855463,0.005066683981567621,0.012341410852968693,-0.03819748014211655,-0.035456277430057526,-0.07728931307792664,-0.0503862202167511,-0.06789050996303558,-0.060322489589452744,-0.01759055256843567,0.0535561628639698,0.02973559871315956,0.023440999910235405,0.06254411488771439,0.0242141243070364,0.028089262545108795,0.02820473350584507,-0.017044827342033386,-0.021716449409723282,-0.044434040784835815,-0.025072356685996056,-0.032791007310152054,-0.012185400351881981,-0.07962468266487122,-0.032847851514816284,-0.018138248473405838,-0.023236282169818878,-0.05066962167620659,-0.03083152137696743,-0.036799270659685135,0.0248639564961195,-0.002806377597153187,0.008510771207511425,-0.03177108243107796,-0.05876205116510391,-0.04166727885603905,-0.06227169185876846,-0.06709954142570496,-0.024521829560399055,-0.0019400290912017226,-0.006014869082719088,-0.017847923561930656,0.021202322095632553,0.02445872500538826,0.004491496831178665,0.030153173953294754,0.023919427767395973,-0.01669204980134964,0.02155858837068081,-0.039922382682561874,-0.025726165622472763,-0.04029866307973862,-0.04326946288347244,0.011613616719841957,-0.0392589196562767,-0.025857439264655113,-0.04745214805006981,0.004284716676920652,0.027717633172869682,-0.007718405686318874,0.015882203355431557,-0.002512571169063449,-0.010499721392989159,-0.07826913893222809,-0.07074302434921265,-0.06868837773799896,-0.01686498150229454,-0.013166839256882668,-0.020992973819375038,-0.009968239814043045,0.011187843047082424,-0.003900696523487568,-0.011141500435769558,0.03847355768084526,0.02775241620838642,0.020013626664876938,-0.0074608586728572845,0.014878845773637295,-0.07513884454965591,-0.10482848435640335,-0.05642988160252571,-0.007439772132784128,0.014853883534669876,0.009699732065200806,-0.035530753433704376,0.005564537830650806,-0.01960570365190506,0.02711809240281582,0.00632626423612237,0.013272126205265522,-0.003946049138903618,-0.053016483783721924,-0.08210595697164536,-0.01937108114361763,-0.09173481166362762,-0.023990096524357796,0.007765093818306923,-0.00011756462481571361,0.058734532445669174,0.020618241280317307,-0.0010736838448792696,0.009492424316704273,0.021011637523770332,0.00842239335179329,-0.03391018882393837,-0.06229260936379433,-0.07927977293729782,-0.041762880980968475,0.011393408291041851,0.014965434558689594,-0.04531093314290047,-0.014133336022496223,-0.035694073885679245,-0.019702596589922905,0.03388994559645653,0.051929719746112823,0.03964756801724434,0.02257259003818035,-0.039644885808229446,-0.016968606039881706,-0.05592593550682068,-0.08095737546682358,-0.054370153695344925,-0.02290499396622181,-0.05440009385347366,0.014290873892605305,-0.007804600056260824,0.009749183431267738,0.012646500952541828,0.05535748973488808,0.004192161373794079,-0.008910920470952988,-0.05298858508467674,-0.013205152004957199,-0.06575864553451538,-0.030111294239759445,0.0033790499437600374,0.008744599297642708,0.012262217700481415,-0.04783497750759125,-0.007168774958699942,-0.026149526238441467,0.02712724171578884,-0.02255121059715748,0.038117676973342896,-0.010764673352241516,-0.003376253414899111,0.012076796032488346,-0.04284477233886719,-0.09386336803436279,-0.0830145925283432,0.00555910961702466,0.01846451312303543,0.024727022275328636,0.02197292447090149,0.02310328185558319,-0.02285117097198963,0.018674857914447784,0.018774770200252533,-0.003253837348893285,-0.0022185256239026785,-0.019228443503379822,-0.03885321691632271,-0.04268636927008629,-0.043528538197278976,-0.030072331428527832,-0.04546010494232178,0.005364650394767523,-0.043224308639764786,-0.004324775189161301,-0.01054779440164566,-0.00130896654445678,-0.019736014306545258,0.011963573284447193,-0.0003430492361076176,-0.03195163980126381,-0.022507529705762863,-0.0661373883485794,-0.034745752811431885,0.02758023515343666,0.0361991748213768,0.043852079659700394,0.007621653378009796,0.02979486994445324,0.03793052211403847,0.02573936991393566,0.015108874067664146,-0.013813815079629421,-0.024860911071300507,-0.06900131702423096,-0.02073993906378746,-0.03846079483628273,-0.05619313195347786,-0.02233973890542984,0.014937665313482285,-0.018970079720020294,-0.010254518128931522,0.002000792184844613,-0.0007583022234030068,-6.608771218452603e-05,-0.0013796150451526046,-0.042894668877124786,-0.07008731365203857,-0.033076707273721695,-0.054656971246004105,-0.0018328940495848656,0.01835467666387558,0.0003633495944086462,0.009634939953684807,-0.0033622756600379944,-0.01248571090400219,0.007789778057485819,0.03223348781466484,-0.012048844248056412,-0.02439986914396286,-0.010108483023941517,-0.061867605894804,-0.04723777994513512,-0.0725431814789772,-0.027164898812770844,-0.014945637434720993,-0.04293600469827652,-0.0005783985834568739,0.006981006357818842,0.01665494590997696,0.01443574670702219,0.027365900576114655,-0.011156364344060421,0.024521006271243095,-0.012686879374086857,-0.019115371629595757,-0.06490127742290497,-0.00020407410920597613,0.017540987581014633,0.01588967628777027,0.00702687818557024,0.03855806216597557,0.02125486172735691,-0.012701740488409996,-0.0029131832998245955,-0.014830058440566063,-0.010518535040318966,-0.00955280102789402,-0.0687960684299469,-0.03659335523843765,0.010616503655910492,-0.012450001202523708,-0.03237477317452431,-0.045383270829916,-0.02555500529706478,-0.048088185489177704,0.01109180599451065,-0.026645828038454056,-0.01663452759385109,0.0026253077667206526,0.06151290610432625,0.0410664901137352,0.061024315655231476,0.04688994213938713,-0.01720292866230011,0.016243742778897285,0.026415962725877762,-0.021946340799331665,-0.013428011909127235,-0.004344170913100243,0.009979205206036568,0.05176271125674248,-0.018926292657852173,-0.008767775259912014,-0.0014024220872670412,-0.019648931920528412,-0.04200686141848564,-0.04793431982398033,0.011297912336885929,0.0017869524890556931,-0.03161231055855751,0.0050573875196278095,-0.04991297051310539,-0.0348510667681694,-0.01893845945596695,-0.050455305725336075,-0.012199177406728268,-0.0011110941413789988,-0.013971017673611641,0.04076472669839859,0.06368832290172577,0.09201403707265854,0.08729328215122223,0.08595845103263855,0.07230225950479507,0.08194821327924728,0.08197350054979324,0.07048670202493668,0.024698371067643166,0.09311489760875702,0.059572260826826096,0.06869790703058243,0.05716611072421074,-0.000946543354075402,0.046567097306251526,0.014137377962470055,0.007055547554045916,-0.031078949570655823,-0.008993147872388363,-0.01858407072722912,-0.003692137310281396,-0.05192467197775841,-0.028546584770083427,0.01805044151842594,-0.011611987836658955,-0.015160239301621914,0.0072367205284535885,0.005227620247751474,0.02053089626133442,0.0509110763669014,0.05686658248305321,0.06106574460864067,0.037748027592897415,0.06728354096412659,0.05623714253306389,0.11098926514387131,0.080563984811306,0.045218922197818756,0.02266795188188553,0.06450643390417099,0.015401518903672695,0.0377022884786129,-0.02228311449289322,0.006262397393584251,-0.00942463893443346,0.0030424417927861214,-0.008004553616046906,-0.028799625113606453,0.018547499552369118,0.013270891271531582,-0.009360847994685173,-0.010377604514360428,-0.0021043773740530014,-0.04643593728542328,-0.03745364770293236,-0.03691519424319267,-0.008086751215159893,0.00031414994737133384,-0.04974457621574402,-0.01169392466545105,-0.026338689029216766,0.0017806701362133026,-0.033369727432727814,-0.03176232427358627,-0.030051857233047485,0.017757566645741463,-0.001676912303082645,-0.006845871452242136,-0.01849277690052986,0.0018652990693226457,-0.01706550270318985,-0.0015543769113719463,-0.005295067559927702,-0.025879068300127983,0.015327390283346176,-0.025307023897767067,-0.01096097007393837,0.03730398043990135,-0.01928005740046501,0.030109554529190063,0.02576013281941414,0.0055125742219388485,0.02224569395184517,0.03309732303023338,0.008769979700446129,-0.005166706163436174,-0.00040762213757261634,0.0005787183763459325,0.011061926372349262,0.013621143996715546,0.030874673277139664,-0.009344985708594322,-0.019826896488666534,-0.015904054045677185,0.02051537111401558,-0.01872795820236206,-0.023073740303516388,0.02800804004073143,-0.020373545587062836,-0.013115479610860348,0.03235751762986183,0.012039467692375183,0.013201095163822174,0.023883502930402756,-0.011410697363317013,0.03301432356238365,-0.018667113035917282,0.03474312648177147,0.01980096846818924,-0.023305324837565422,0.004050167743116617,0.03883230686187744,-0.006828736513853073,-0.005153830628842115,0.015403399243950844,-0.023058919236063957,-0.024061555042862892,0.03169840946793556,-5.7331693824380636e-05,0.003697858192026615,0.03465209901332855,-0.017005013301968575,-0.017545336857438087,0.02614649571478367,0.031038187444210052,-0.001358191599138081,-0.016770074144005775,0.02605183608829975,0.017456382513046265,0.018543526530265808,0.029339492321014404,-0.007707740180194378,0.03021206706762314,-0.023720744997262955,0.03207382932305336,-0.017408428713679314,0.002613215008750558,0.024939794093370438,0.013806392438709736,0.035825081169605255,0.008482356555759907,0.00023755973961669952,0.010676759295165539,-0.01660611294209957,-0.029876841232180595,-0.025616833940148354,-0.03078455850481987,0.00821257196366787,-0.04181718826293945,-0.03852670639753342,-0.00025312253274023533,-0.009976682253181934,-0.014455065131187439,0.017858430743217468,0.013063214719295502,0.02242225781083107,0.011908233165740967,-0.015865404158830643,0.005557287484407425,-0.01310004759579897,0.0008342650253325701,-0.01399565301835537,-0.012167192995548248,-0.0221798624843359,-0.01444779522716999,0.03926077485084534,0.004693951457738876,-0.012921963818371296,0.02044687047600746,-0.039383526891469955,0.0010597098153084517,-0.010989627800881863,-0.07907697558403015,-0.04871273413300514,-0.0648321732878685,-0.07119904458522797,-0.07107950001955032,-0.04675891250371933,-0.022013291716575623,-0.01322985626757145,-0.05910426005721092,-0.048951756209135056,-0.016595132648944855,-0.037118203938007355,-0.023057622835040092,-0.03025580383837223,0.022611133754253387,-0.012045084498822689,0.0397736094892025,0.0004014037549495697,0.01327535416930914,0.0325411893427372,-6.74163457006216e-05,0.03413711115717888,0.04269031062722206,0.014875942841172218,0.019500145688652992,0.02378883957862854,0.013958729803562164,-0.03396915644407272,0.014686644077301025,-0.0038577881641685963,0.0009748951997607946,-0.02557625249028206,-0.03602302819490433,-0.011405939236283302,-0.017393482849001884,-0.004717444535344839,-0.034125085920095444,0.004985652398318052,-0.025945842266082764,-0.007645188365131617,-0.02150842361152172,-0.02279670350253582,0.02987157180905342,-0.009324629791080952,0.00946266483515501,0.01721118576824665,0.01595025509595871,-0.012229662388563156,0.023342488333582878,0.05380912497639656,0.01943281479179859,0.01111301127821207,-0.026007000356912613,-0.003764837048947811,0.012515041045844555,0.021084045991301537,0.01181857194751501,0.04132095351815224,0.05612833425402641,0.017326338216662407,0.03452838212251663,-0.05811989679932594,-0.018619179725646973,0.020366935059428215,-8.27807089081034e-05,0.021629424765706062,-0.03413953632116318,-0.0339423231780529,-0.006387124303728342,-0.03627125546336174,-0.02115578018128872,-0.030529353767633438,-0.006210428662598133,0.0344916395843029,0.030108563601970673,-0.015260918065905571,0.04365278780460358,0.043468814343214035,0.024154726415872574,-0.004963896702975035,0.006884278263896704,-0.0440695621073246,0.022649303078651428,0.031656887382268906,0.014818358235061169,0.030130838975310326,0.06269795447587967,0.026176733896136284,-0.011111832223832607,0.0030955495312809944,0.024523647502064705,-0.032138627022504807,-0.0134211340919137,-0.026937661692500114,0.012375746853649616,-0.015268265269696712,0.0034755589440464973,-0.06716236472129822,0.012857314199209213,-0.01309558842331171,0.00736485468223691,0.03168480470776558,-0.006540725473314524,0.03592923283576965,0.01779874414205551,0.0472627617418766,0.034718189388513565,-0.01586001366376877,-0.003460381645709276,-0.029180599376559258,0.02737647294998169,0.03417067602276802,-0.004294783342629671,0.00839703343808651,0.014707649126648903,0.02429112419486046,0.036782365292310715,-0.014218511059880257,0.030917635187506676,0.0040758452378213406,-0.01045203022658825,-0.021601881831884384,-0.04387384653091431,-0.028335994109511375,-0.024789853021502495,-0.0251021571457386,-0.05064006522297859,-0.02239193581044674,0.004590755794197321,0.03946632519364357,0.016489338129758835,0.019921012222766876,-0.014014855958521366,-0.019720053300261497,0.018459443002939224,0.009393933229148388,-0.018226927146315575,0.002856977516785264,0.04022980108857155,0.028033142909407616,-0.041420672088861465,-0.012070967815816402,-0.01634623482823372,0.04185202345252037,0.04410657286643982,0.013246129266917706,0.002452358603477478,0.0489366352558136,0.013401679694652557,-0.020602280274033546,-0.045253198593854904,-0.010600129142403603,-0.040473878383636475,-0.06729564815759659,-0.03610813245177269,-0.011213649064302444,0.02336004003882408,-0.023232124745845795,0.003752234624698758,-0.02937670797109604,0.023975420743227005,0.008504739962518215,0.006349500268697739,0.040349118411540985,0.051739905029535294,-0.003918795380741358,0.022809091955423355,0.00426519475877285,-0.015315773896872997,-0.037177540361881256,0.05012640729546547,0.03588603436946869,0.01946844346821308,0.09712856262922287,0.08173215389251709,0.09377357363700867,0.059161242097616196,-0.01125556044280529,0.012386071495711803,-0.034072332084178925,-0.04228540137410164,-0.05993181839585304,-0.030149169266223907,-0.02494913712143898,-0.021573759615421295,-0.02463960088789463,0.02280193753540516,-0.006680837832391262,0.019805943593382835,0.008518487215042114,-0.004078431986272335,-0.014370603486895561,-0.030123058706521988,-0.03392850235104561,-0.002835117746144533,-0.011461356654763222,-0.02514662593603134,-0.014110867865383625,0.007915538735687733,0.03871618211269379,0.021182039752602577,0.035723086446523666,0.055839866399765015,0.0402817577123642,0.04497776925563812,-0.0013668638421222568,-0.01688213460147381,0.009826603345572948,-0.034140199422836304,-0.07634776830673218,-0.05549188703298569,-0.031934041529893875,-0.023516444489359856,-0.014189486391842365,0.02478812262415886,-0.05147426947951317,0.009013306349515915,0.026507090777158737,0.024433115497231483,0.032298896461725235,0.035272449254989624,0.027418147772550583,-0.0007379560847766697,-0.002739570802077651,-0.024236468598246574,0.03284522891044617,0.04731118306517601,-0.006970460992306471,0.02126981131732464,0.06294272840023041,0.04296883940696716,0.03774666041135788,0.054581169039011,0.03867471590638161,0.001232709502801299,0.01673514023423195,-0.006610310636460781,-0.00719522126019001,-0.012738609686493874,-0.025886360555887222,-0.0012976485304534435,0.015003141015768051,0.012951444834470749,-0.03349623456597328,-0.04649844020605087,-0.0016514159506186843,0.057463791221380234,0.03160164877772331,0.009557918645441532,-0.03481559827923775,0.018137505277991295,-0.009770970791578293,0.03601451963186264,0.04514370113611221,0.08657556772232056,0.07592087984085083,0.008311351761221886,0.0555439367890358,0.026393385604023933,0.03548750281333923,0.06451965868473053,0.03732568025588989,0.07203464210033417,0.013194983825087547,0.027987167239189148,0.01839371770620346,-0.028882581740617752,-0.009040561504662037,0.014428867027163506,-0.02330753766000271,0.01467624306678772,-0.02915196120738983,-0.037378259003162384,0.04470254108309746,-0.014373540878295898,-0.0017258980078622699,0.0024440023116767406,0.0006037900457158685,0.023372109979391098,-0.01990489475429058,0.006115635856986046,0.045348092913627625,0.08997046202421188,0.06107448413968086,0.030329059809446335,0.031506672501564026,0.07638061046600342,0.0265971627086401,0.043867964297533035,0.03796176239848137,0.00033129029907286167,0.04253944009542465,-0.03428256884217262,-0.0350157655775547,-0.046106740832328796,-0.007627311162650585,0.010716664604842663,0.037744902074337006,-0.001522590289823711,-0.017568930983543396,-0.0026089928578585386,0.057005755603313446,-0.011383547447621822,-0.03659755736589432,0.021144749596714973,0.03145842254161835,0.010778701864182949,0.024644704535603523,0.05088988319039345,0.06668175011873245,0.051256123930215836,0.06378065049648285,0.01175314374268055,0.06666704267263412,0.05495091900229454,0.059880997985601425,-0.007542558014392853,0.026197565719485283,-0.023009592667222023,0.004309740383177996,-0.08170606195926666,-0.0423375703394413,-0.02290080301463604,-0.022059351205825806,0.02048005722463131,0.042467959225177765,0.0058059003204107285,-0.004253219347447157,-0.02785424143075943,0.007914423011243343,0.011969147250056267,-0.019934460520744324,-0.01917419582605362,-0.0006659768405370414,0.0410606749355793,-0.010707519948482513,0.06240581348538399,0.06291402876377106,0.036976054310798645,0.042845554649829865,0.0037595320027321577,0.07366970926523209,0.0019940270576626062,-0.030112776905298233,0.009255817160010338,-0.03003537841141224,0.013834397308528423,0.010029074735939503,-0.07100614905357361,-0.07214818894863129,0.0030464460141956806,-0.014394612051546574,-0.02334924042224884,0.009171274490654469,0.01742517575621605,0.0055295927450060844,-0.01567836105823517,-0.026209896430373192,-0.018567560240626335,-0.017158985137939453,0.0029646139591932297,0.04855537414550781,0.0342402383685112,0.026297781616449356,0.08333028852939606,0.031094033271074295,0.03971192613244057,-0.013035720214247704,0.007912861183285713,0.014652980491518974,0.018904278054833412,-0.010420070961117744,-0.04322582483291626,0.015669051557779312,-0.02687411569058895,-0.024889403954148293,-0.0627756342291832,-0.06003039702773094,0.0016699139960110188,-0.041042760014534,0.04119467735290527,-0.012209335342049599,0.044782768934965134,-0.023404469713568687,-0.007100439630448818,-0.06272098422050476,-0.03040027990937233,-0.06655228137969971,-0.011314308270812035,0.020813798531889915,0.06019490584731102,0.07967820763587952,0.0255928635597229,0.02356697991490364,0.008165636099874973,-0.01950853504240513,-0.012496640905737877,0.014020009897649288,0.022021735087037086,-0.010999910533428192,-0.0073816534131765366,-0.030870242044329643,-0.02365998551249504,-0.03218861296772957,-0.02515898272395134,-0.07181946933269501,-0.06591970473527908,-0.0010581976966932416,0.043030720204114914,0.03585180640220642,-0.007095361594110727,-0.0032596702221781015,0.04059522598981857,-0.061684004962444305,-0.05565977096557617,-0.008254650980234146,-0.04438388720154762,-0.015005066990852356,0.02690492942929268,0.03816159814596176,0.07145712524652481,0.029392968863248825,-0.04678751900792122,0.008078611455857754,-0.006362878251820803,0.00965987890958786,-0.004020942375063896,-0.00022748298943042755,0.012769765220582485,0.011016815900802612,-0.017888564616441727,-0.005008012056350708,-0.03071335144340992,-0.06233559548854828,-0.05302276834845543,0.008142450824379921,0.03851701319217682,-0.004609897267073393,0.02468130737543106,0.007683554198592901,0.0294907558709383,0.0009093864937312901,-0.029662752524018288,8.941155101638287e-05,-0.035160742700099945,-0.059630539268255234,-0.06106369569897652,0.010167338885366917,-0.06825234740972519,-0.020554106682538986,-0.048260029405355453,-0.06755602359771729,-0.03597598895430565,-6.773188943043351e-05,0.013064171187579632,-0.0038295334670692682,-0.014790887013077736,0.011300159618258476,0.02378663793206215,-0.04033141955733299,-0.03057778999209404,-0.03992420807480812,-0.024883287027478218,0.03802397474646568,0.037190329283475876,-0.0012342033442109823,-0.00792118813842535,0.04199761897325516,-0.021061500534415245,-0.026995686814188957,-0.004605723544955254,0.009802556596696377,-0.05669192969799042,-0.08549924194812775,-0.05473656579852104,-0.05965800583362579,-0.07975468039512634,-0.10205461829900742,-0.0772184431552887,-0.06501197814941406,-0.04560409113764763,0.014707427471876144,0.016942687332630157,0.02584817260503769,-0.007937242276966572,0.02880910038948059,0.019768035039305687,0.02295222319662571,-0.0125890476629138,-0.04336998239159584,0.02543659508228302,-0.014419039711356163,0.012163971550762653,0.011240807361900806,0.016771161928772926,0.020943304523825645,-0.01670963503420353,0.022231467068195343,-0.02665170468389988,0.04984244331717491,0.03127821162343025,-0.051966797560453415,-0.044618453830480576,-0.01908419467508793,-0.02779482491314411,-0.05443783104419708,-0.038948386907577515,-0.01011673267930746,0.005553946830332279,0.021994125097990036,0.01907074823975563,0.05678589642047882,0.02975352667272091,0.022495733574032784,0.009989890269935131,0.002100144512951374,-0.017065083608031273,-0.026036985218524933,0.021374404430389404,-0.02197018451988697,0.017827430739998817,0.02766915038228035,0.04001200944185257,0.00901773665100336,-0.01638999953866005,0.010337220504879951,0.03128764033317566,0.03359510004520416,0.031515780836343765,-0.006191655993461609,-0.044838275760412216,-0.021617865189909935,-0.023371249437332153,-0.044944681227207184,-0.03961179405450821,0.03359333425760269,-0.028683427721261978,0.022658050060272217,0.04551347717642784,0.05643482133746147,0.027267806231975555,0.06545470654964447,0.003335845423862338,-0.00800709892064333,0.019420981407165527,0.01726911962032318,-0.004597704391926527,0.04295572265982628,-0.0040829419158399105,0.017873333767056465,0.0009730504243634641,-0.005356569308787584,0.02590809389948845,-0.034732747822999954,-0.007635102607309818,0.019541997462511063,0.04402848333120346,0.02388848178088665,-0.0007148552103899419,0.013543928973376751,0.056007977575063705,0.04444319009780884,0.03962983191013336,-0.01732100173830986,0.022832920774817467,0.008037196472287178,0.053983110934495926,0.060750238597393036,0.027903899550437927,0.041562311351299286,0.019284091889858246,0.0497603639960289,0.02796250954270363,-0.03328448534011841,0.0011184539180248976,-0.024838518351316452,-0.015790104866027832,-0.007419762667268515,-0.008990617468953133,0.022341931238770485,0.01802096702158451,0.011054744943976402,-0.00033675803570076823,0.019771315157413483,0.011663910001516342,-0.008274058811366558,0.004060488659888506,0.010185113176703453,-0.009519264101982117,-0.0007985304109752178,-0.05601248890161514,-0.030793752521276474,-0.024891193956136703,0.023113831877708435,-0.023143740370869637,0.03373265266418457,0.002343099331483245,0.05778263509273529,0.010564463213086128,0.04348141700029373,0.05964977666735649,0.007417925633490086,-0.011321643367409706,-0.003781264880672097,-0.026754140853881836,0.00292844045907259,-0.02207779884338379,0.04212459921836853,0.028812281787395477,-0.013913287781178951,0.046981923282146454,0.01615179516375065,0.014048585668206215,0.030324775725603104,0.017495663836598396,0.013713506050407887,-0.020316191017627716,-0.03286842256784439,-0.022868424654006958,-0.044711120426654816,-0.05629497021436691,-0.04979497939348221,-0.033783748745918274,0.028885329142212868,-0.008595172315835953,0.01372238527983427,-0.01208275742828846,0.0359182134270668,0.016515472903847694,-0.0321379117667675,0.035189006477594376,-0.018794763833284378,0.007395996246486902,0.019137099385261536,-0.002537466585636139,-0.009959230199456215,0.018522927537560463,0.040294140577316284,0.05615821108222008,0.0398700051009655,0.042232491075992584,0.027746880427002907,0.012031566351652145,0.060162998735904694,0.019844140857458115,0.06884091347455978,0.027318116277456284,0.041535813361406326,0.023242276161909103,-0.001830807188525796,0.036795567721128464,-0.016160469502210617,0.000115238617581781,0.01845170184969902,0.028319653123617172,0.04133613035082817,0.03206030651926994,0.03878898546099663,0.008935357443988323,0.016521338373422623,0.009659267030656338,0.011307306587696075,0.041256751865148544,0.004355582874268293,-0.015406355261802673,-0.004945214372128248,0.028770409524440765,0.03089447133243084,0.012968546710908413,0.031944453716278076,-0.010418791323900223,0.012862591072916985,-0.011459155939519405,-0.01791413500905037,-0.018507089465856552,0.007695701438933611,-0.004031193442642689,0.024847567081451416,0.015893317759037018,0.00543499318882823,0.04284856468439102,-0.02221962995827198,0.029806625097990036,-0.0068870531395077705,0.020231429487466812,0.0019379080040380359,0.0031138884369283915,0.018382441252470016,0.02131052315235138,0.0002888811577577144,-0.03360750153660774,-0.030347738415002823,-0.04262160509824753,0.010838455520570278,-0.03571205586194992,0.015415355563163757,-0.01973184570670128,-5.229143425822258e-06,-0.026406709104776382,-0.041483744978904724,-0.026503197848796844,-0.007012003101408482,-0.018942000344395638,-0.017325695604085922,0.025312431156635284,-0.039505548775196075,-0.026334289461374283,-0.0035359913017600775,0.010231546126306057,0.018110886216163635,0.025180861353874207,-0.03865513205528259,0.015851572155952454,-0.04267633706331253,-0.0006077282596379519,-0.006785341072827578,-0.044598981738090515,-0.002666893880814314,-0.015458156354725361,-0.03976251929998398,0.0024429212789982557,0.01206089649349451,0.011262668296694756,0.008208098821341991,0.011044819839298725,-0.02695152908563614,-0.03014557622373104,0.011689952574670315,-0.04046186804771423,-0.023430846631526947,-0.00458978395909071,0.02343009226024151,-0.04153154417872429,0.017271937802433968,-0.018694423139095306,0.005554178263992071,-0.02907685562968254,0.025140127167105675,0.021228482946753502,-0.03052334301173687,0.024332311004400253,0.012658474035561085,-0.03205709159374237,-0.025831494480371475,0.0057519874535501,-0.007323457393795252,-0.02982371672987938,0.0008904631249606609,0.004172800574451685,-9.788686293177307e-05,0.0019451151601970196,-0.008663259446620941,-0.019102687016129494,-0.008783066645264626,0.02460302971303463,-0.01275560725480318,-0.004934985656291246,-0.011761683039367199,-0.03205267712473869,0.011530591174960136,0.007730802521109581,0.006874057464301586,-0.0017309014219790697,0.019923163577914238,-0.021283075213432312,-0.028298702090978622,0.020681124180555344,-0.028829798102378845,0.017848366871476173,0.0017611011862754822,-0.024373767897486687,-0.01373568270355463,-0.00046354049118235707,-0.012721548788249493,0.003803875995799899,0.0035566887818276882,-0.0009730403544381261,0.023600207641720772,-0.012206705287098885,-0.03283214196562767,-0.03649492189288139,-0.021523043513298035,-0.024684671312570572,0.02074754796922207,-0.030374249443411827,0.014956660568714142,-0.003591675776988268,-0.037262022495269775,-0.02142345905303955,-0.014407839626073837,-0.04762205854058266,-0.003762197447940707,0.005694309249520302,-0.0378580316901207,-0.014917265623807907,-0.03185649216175079,-0.03531302139163017,0.01573137193918228,0.00912761315703392,0.015270102769136429,0.024103891104459763,-0.010647342540323734,0.001133112469688058,0.0120931351557374,-0.0038967053405940533,0.008116052486002445,0.02776842750608921,-0.02789609506726265,-0.0118355518206954,-0.011373874731361866,-0.0042351786978542805,-0.017659233883023262,0.01802711933851242,-0.05307573080062866,-0.07689429819583893,-0.03375981003046036,-0.04937116801738739,-0.041381970047950745,-0.05010339990258217,-0.02457844838500023,-0.007827876135706902,-0.06834334135055542,-0.020929552614688873,0.014746272005140781,-0.01813756860792637,0.0008370778523385525,-0.035525158047676086,-0.005527475383132696,-0.04200747609138489,-0.04217633605003357,-0.00373923615552485,-0.017403949052095413,-0.015718575567007065,0.011272153817117214,0.010353514924645424,0.048243772238492966,0.0007895622402429581,0.014975251629948616,-0.03578771650791168,-0.0009148439858108759,-0.020607756450772285,-0.03136029839515686,-0.012340926565229893,-0.03236717730760574,-0.011367931962013245,-0.016840679571032524,-0.013932352885603905,-0.01911386288702488,-0.05205496400594711,-0.017127960920333862,-0.05088759958744049,-0.04909178987145424,-0.008141065016388893,-0.0484623946249485,-0.02956750988960266,-0.022216184064745903,-0.0221158005297184,0.0007722361478954554,0.022741487249732018,-0.008526594378054142,0.0063693025149405,0.022911131381988525,-0.007169258315116167,-0.004258108325302601,0.019105909392237663,0.004912422504276037,0.03500571474432945,0.0576227568089962,0.07234808802604675,0.031473152339458466,0.044064000248909,0.08541487157344818,0.04902386665344238,-0.013731698505580425,-0.05059365555644035,-0.058387722820043564,-0.04306460916996002,-0.030430471524596214,-0.017997074872255325,-0.06378068774938583,-0.06488554924726486,-0.03895389661192894,-0.0018372535705566406,-0.040740713477134705,-0.012359126470983028,0.01597815379500389,-0.01691490039229393,0.024102767929434776,-0.017966903746128082,-0.020749621093273163,-0.0064453366212546825,0.016480321064591408,0.042744625359773636,0.06443341821432114,0.041910819709300995,0.10932894796133041,0.054574672132730484,0.13146325945854187,0.12845173478126526,0.07688441127538681,0.08756443113088608,0.06018727272748947,-0.01981945149600506,-0.03320024162530899,-0.03101603128015995,-0.07062872499227524,-0.057350028306245804,-0.02033473737537861,-0.042997993528842926,-0.05868861451745033,0.005691198632121086,-0.00668776361271739,-0.023028986528515816,-0.03662671521306038,-0.03897887468338013,0.003982355818152428,0.011951182037591934,0.019066279754042625,-0.014818820171058178,-0.0013689782936125994,0.0033905149903148413,0.08079581707715988,0.05391823500394821,0.09449824690818787,0.09304840117692947,0.11427167057991028,0.09366872161626816,0.09770914167165756,0.06987358629703522,0.044460177421569824,0.020576074719429016,-0.01547233946621418,-0.06018758937716484,-0.026409905403852463,-0.03137343376874924,-0.010347913019359112,-0.05823315307497978,-0.0571364164352417,-0.011340470984578133,-0.039586033672094345,-0.029982756823301315,-0.0322219617664814,-0.03467286005616188,-0.0252971388399601,-0.006742775905877352,-0.00847694929689169,-0.01330284122377634,0.07861167192459106,0.06808573752641678,0.05870192497968674,0.03964073956012726,0.11642518639564514,0.0718257948756218,0.0322425551712513,0.07999538630247116,0.08621569722890854,-0.007928188890218735,-0.03714131563901901,0.00199697632342577,-0.021446900442242622,-0.01600632630288601,-0.041674286127090454,-0.03396983817219734,-0.022395530715584755,-0.06502798944711685,-0.024908460676670074,-0.00085957016563043,-0.041822388768196106,-0.04032205045223236,-0.03910299763083458,0.019870029762387276,-0.031198600307106972,0.05429866909980774,0.050064075738191605,0.04465346783399582,0.07002703100442886,0.020016010850667953,0.08179749548435211,0.032509639859199524,0.053498249500989914,0.051234204322099686,0.017166422680020332,0.032837044447660446,0.04940364882349968,0.011157386936247349,-0.018249358981847763,-0.04422653093934059,-0.04027610644698143,-0.0673929825425148,-0.018716508522629738,-0.04519703984260559,-0.003560778684914112,-0.028770653530955315,-0.04081617668271065,0.022190045565366745,-0.03778614476323128,0.022618191316723824,-0.0020616319961845875,-0.03820984438061714,-0.02839997038245201,0.04511499032378197,0.0493604838848114,0.04054347425699234,0.06706047803163528,0.024121681228280067,0.05626603588461876,-0.015455079264938831,-0.03030298836529255,0.00841068010777235,-0.047171663492918015,-0.02213013730943203,0.01668134704232216,0.035047318786382675,0.0008596507250331342,0.00466139055788517,0.04360007494688034,-0.011384916491806507,-0.004568049684166908,-0.022331293672323227,0.02185717783868313,-0.035636451095342636,-0.0591825470328331,-0.006082429084926844,0.015415775589644909,-0.012349334545433521,-0.009580238722264767,-0.03768252581357956,-0.015291485004127026,0.038655079901218414,0.07352069020271301,0.0060690175741910934,0.02272319793701172,-0.02242143452167511,-0.010212989524006844,-0.05556226149201393,-0.05994132161140442,-0.08430161327123642,-0.07718843966722488,-0.019507858902215958,0.034444134682416916,0.06182876601815224,-0.012316180393099785,0.016364984214305878,0.010708468034863472,-0.0066180662252008915,0.008419428020715714,-0.011493977159261703,-0.005120389629155397,-0.03581084683537483,-0.03938199207186699,-0.011234868317842484,-0.04096903279423714,-0.041718754917383194,-0.04123973101377487,-0.014604339376091957,0.017828328534960747,0.033581867814064026,0.0671466588973999,-0.022131115198135376,-0.05061984434723854,-0.03626633062958717,-0.014631913974881172,-0.01655614748597145,-0.05894123762845993,-0.039921898394823074,-0.03519744053483009,-0.02844354696571827,0.0496966689825058,0.031360357999801636,-0.0035778379533439875,0.031983666121959686,-0.03840942680835724,-0.010055859573185444,0.023177482187747955,-0.008355619385838509,-0.006808594334870577,-0.00768597237765789,-0.04164746403694153,-0.05574243143200874,-0.04402125999331474,-0.0065615507774055,0.01794438436627388,0.004019636195152998,-0.033125631511211395,-0.001980753615498543,-0.017260553315281868,-0.10345248878002167,-0.039986636489629745,-0.021190369501709938,-0.017464332282543182,-0.05968945473432541,-0.030207635834813118,-0.022211935371160507,-0.04858171567320824,0.010679766535758972,-0.009214961901307106,0.011863965541124344,-0.013653101399540901,-0.029901646077632904,-0.04186030477285385,0.008809083141386509,0.025796886533498764,-0.015147468075156212,0.016053779050707817,-0.006000801920890808,-0.034598175436258316,-0.028560904785990715,0.0184324998408556,-0.00667572021484375,-0.007599155884236097,-0.008505059406161308,-0.011591282673180103,-0.045420967042446136,-0.02901771105825901,-0.04227769374847412,-0.002040273742750287,-0.06554233282804489,-0.06485895812511444,-0.025216076523065567,-0.04152439162135124,0.013032634742558002,-0.03173944354057312,-0.04490966722369194,-0.04187110811471939,0.006031222175806761,-0.004827716387808323,0.022159868851304054,-0.0063436077907681465,0.00830875989049673,0.059769365936517715,0.04749521240592003,0.03489592671394348,0.013336500152945518,-0.00917349848896265,0.0102224824950099,-0.04348674789071083,0.00013494561426341534,0.013394682668149471,-0.007479510735720396,-0.034028954803943634,-0.04330010712146759,-0.021664777770638466,-0.03939635306596756,-0.04052785411477089,-0.03070870414376259,-0.03420647606253624,-0.008001765236258507,-0.03386218100786209,-0.027359090745449066,0.00490404199808836,-0.06133439391851425,-0.03262368589639664,-0.0038872379809617996,-0.05332444608211517,0.016549548134207726,0.011538360267877579,0.01567663997411728,0.0342019759118557,0.0217729602009058,0.04075528681278229,0.034727878868579865,-0.02130201831459999,-0.0007623771671205759,-0.03221364691853523,-0.015274685807526112,-0.028257228434085846,-0.03542528301477432,0.014626379124820232,-0.01783810928463936,-0.04820333048701286,-0.04184233769774437,-0.0411849208176136,-0.059858210384845734,-0.027580508962273598,-0.05677075311541557,0.005433676298707724,-0.043684426695108414,-0.020300889387726784,-0.03147624060511589,-0.012400479055941105,-0.007986603304743767,-0.04641743004322052,-0.0032992050983011723,0.04026925563812256,0.033914510160684586,0.028642626479268074,0.06160365790128708,0.010120512917637825,0.05343911424279213,-0.023688670247793198,-0.009844073094427586,-0.036848776042461395,0.013284708373248577,-0.04285537451505661,-0.008957479149103165,0.0026350989937782288,-0.02539488673210144,-0.013053949922323227,-0.034574244171381,0.00925047043710947,-0.0372621975839138,-0.026063838973641396,-0.05064918473362923,-0.05018617585301399,-0.029884731397032738,-0.07609472423791885,-0.07055125385522842,-0.0675411969423294,-0.017722774296998978,-0.035787008702754974,0.0010800791205838323,0.03611316904425621,0.020244818180799484,0.045093707740306854,0.04578536003828049,0.08045046031475067,0.017698615789413452,0.002594712423160672,0.010973016731441021,-0.03245288133621216,-0.03899781405925751,-0.017082540318369865,-0.016521353274583817,-0.007373527158051729,0.02726222202181816,-0.004830994177609682,0.0022081751376390457,-0.008033893071115017,-0.0451999232172966,-0.060804616659879684,-0.00798055436462164,-0.06849095970392227,-0.09084980189800262,-0.12279312312602997,-0.11001498252153397,-0.008070096373558044,-0.030395932495594025,0.02337632328271866,0.008930043317377567,0.02850288152694702,0.051213134080171585,0.07705674320459366,0.011953627690672874,0.027509227395057678,0.003917354624718428,0.026962030678987503,0.022972039878368378,0.002930593676865101,0.02572896145284176,-0.01932251825928688,-0.03644796088337898,0.019578227773308754,0.0014432929456233978,-0.021677950397133827,-0.008137828670442104,-0.05009409785270691,-0.001136099686846137,-0.023198528215289116,-0.016777753829956055,-0.07536955177783966,-0.09425417333841324,-0.06581508368253708,-0.06957279145717621,-0.03804722800850868,-0.01597389206290245,-0.01511392742395401,-0.0198702160269022,0.015575786121189594,0.020370565354824066,0.01775263249874115,-0.013830090872943401,-0.009406287223100662,0.00833178125321865,0.04823397472500801,0.022694779559969902,0.015867192298173904,-0.042193759232759476,-0.025661202147603035,-0.0005874414928257465,-0.007026894483715296,-0.0325189009308815,-0.021339261904358864,0.010171577334403992,-0.020272890105843544,-0.012329750694334507,-0.004554919432848692,-0.04314696788787842,-0.055468037724494934,-0.027755500748753548,-0.006251904182136059,-0.0664943978190422,-0.011484410613775253,-0.009302704595029354,0.0037151919677853584,-0.040896136313676834,0.002109715947881341,0.03559622913599014,0.03819543868303299,-0.025363681837916374,-0.04669054597616196,0.03349915146827698,0.03651260584592819,0.00845132116228342,-0.03607189282774925,0.014376755803823471,-0.030560487881302834,-0.011248140595853329,-0.024424079805612564,-0.023506753146648407,0.004201425705105066,0.017462464049458504,-0.024619434028863907,-0.04637621343135834,-0.042193517088890076,-0.014491727575659752,0.011748958379030228,-0.006879239808768034,-0.014946606941521168,-0.056701742112636566,-0.0004396112635731697,-0.013301664032042027,-0.016819387674331665,-0.03929867222905159,-0.0011020865058526397,-0.018071554601192474,0.015889471396803856,-0.01000810507684946,0.007321178913116455,-0.01917417161166668,-0.010334625840187073,0.011625589802861214,-0.03585865721106529,0.013364546932280064,-0.003740274580195546,0.011589289642870426,0.012857979163527489,0.013306249864399433,-0.013007544912397861,0.011353478766977787,0.005821229424327612,0.021053528413176537,-0.045723333954811096,-0.022418294101953506,0.0065779294818639755,-0.03533264994621277,-0.010712018236517906,-0.027132518589496613,-0.04437568783760071,0.020306214690208435,-0.03084385395050049,0.008022291585803032,-0.04762255400419235,0.0019274225924164057,-0.009962217882275581,-0.03975813090801239,0.02700679935514927,0.03470054641366005,-0.009243922308087349,-0.0032855162862688303,-0.03322606161236763,-0.03253461793065071,-0.011516773141920567,-0.032026901841163635,-0.03147571533918381,0.029975349083542824,0.04152074083685875,0.056101132184267044,0.07259193807840347,-0.0030094312969595194,0.030544642359018326,-0.014083093032240868,-0.013913179747760296,0.005221184808760881,0.00929337926208973,0.017111655324697495,-0.025094904005527496,-0.026603003963828087,0.0064520686864852905,-0.0038190409541130066,0.02156425081193447,-0.02892647497355938,-0.008525502867996693,0.0008614795515313745,0.035838741809129715,0.01856052316725254,-0.017507141456007957,-0.03423396870493889,-0.043909989297389984,-0.040103502571582794,-0.03287689760327339,-0.040895625948905945,-0.010321291163563728,0.00043300483957864344,-0.034068554639816284,-0.0016828941879794002,0.03538218513131142,0.07077772915363312,0.03814231976866722,0.041954074054956436,0.022027557715773582,0.04974184185266495,0.019615793600678444,0.02795182727277279,0.037335947155952454,0.04299895092844963,0.049330659210681915,0.006320822983980179,0.04853537678718567,0.09604944288730621,0.04187968373298645,0.06603682041168213,-0.008932343684136868,-0.00297995051369071,-0.03340306505560875,-0.03791322559118271,0.014205217361450195,-0.014833665452897549,-0.01218182872980833,0.024026885628700256,-0.03524196147918701,0.00015691868611611426,0.02606336772441864,0.0034290042240172625,-0.02580527774989605,0.01894974708557129,0.0451030507683754,0.08634272962808609,0.045835018157958984,0.07678109407424927,0.04617725685238838,0.04838324710726738,0.12551426887512207,0.049023374915122986,0.1135786771774292,0.1146719753742218,0.1064031645655632,0.03133846074342728,0.07312469929456711,0.058716822415590286,0.021969221532344818,-0.03355354815721512,-0.02067774347960949,0.010293933562934399,-0.02995101362466812,-0.024678736925125122,-0.03177616745233536,0.014144151471555233,0.025613892823457718,-0.006897578481584787,-0.037883978337049484,0.018562093377113342,-0.01418203953653574,-0.0256914421916008,-0.02391301654279232,0.01134384423494339,0.01888568513095379,-0.02059985138475895,-0.03670959919691086,0.02915067784488201,-0.020037205889821053,0.015845859423279762,-0.031384628266096115,0.02118811570107937,0.0010881561320275068,0.009490765631198883,0.018730472773313522,-0.03646241873502731,-0.027413947507739067,-0.010624207556247711,-0.027009958401322365,0.01463157869875431,-0.009729359298944473,-0.020953645929694176,0.008640318177640438,-0.0281987302005291,-0.02541087567806244,-0.004089616239070892,-0.03918485343456268,-0.005848594009876251,-0.019677121192216873,-0.00838539656251669,0.005022062920033932,-0.04871551692485809,-0.02259664610028267,-0.01275357510894537,0.0033428289461880922,0.012176251970231533,0.015442966483533382,-0.0037240213714540005,-0.05092751607298851,-0.030166391283273697,-0.05175403133034706,-0.04519214108586311,0.0008409844012930989,-0.005997690372169018,-0.016007428988814354,-0.034024927765131,-0.02606434002518654,-0.04634794220328331,-0.05232910066843033,-0.05054032430052757,-0.0044416035525500774,-0.009725592099130154,-0.05238126963376999,-0.01225066464394331,-0.012384532019495964,0.0023213988170027733,-0.029519222676753998,-0.035064946860075,-0.04411645978689194,-0.032166384160518646,-0.008245502598583698,-0.025715237483382225,-0.029676778241991997,-0.03217428922653198,-0.023207299411296844,-0.023607520386576653,-0.02213503234088421,-0.007673363666981459,-0.030742188915610313,-0.005458038300275803,0.00980213563889265,-0.015109982341527939,-0.003625808283686638,-0.021650271490216255,0.009239624254405499,-0.012071200646460056,-0.0035575581714510918,0.013765430077910423,-0.047643695026636124,-0.03922078385949135,0.01686643622815609,-0.04209417849779129,-0.02261248044669628,0.011457203887403011,0.010000985115766525,0.014984085224568844,-0.016431305557489395,0.01943999156355858,-0.012452843599021435,-0.030015142634510994,0.0014627831988036633,0.023073632270097733,-0.022289041429758072,-0.04109940677881241,0.003335842862725258,0.008209072053432465,-0.03865516185760498,-0.007597854360938072,-0.04752364382147789,-0.02753261663019657,-0.03233523666858673,-0.04911166802048683,-0.021349607035517693,-0.016472460702061653,-0.039156150072813034,-0.026656262576580048,-0.031254205852746964,-0.040427010506391525,-0.04583333432674408,-0.005023546516895294,0.0018739381339401007,-0.05490609630942345,-0.050310783088207245,-0.044251807034015656,-0.02471039444208145,0.03931433707475662,0.015138000249862671,0.04886259138584137,0.06397736817598343,0.040620941668748856,0.04725611209869385,0.06916968524456024,0.014098349958658218,0.06445819139480591,0.004751599859446287,-0.02615204080939293,-0.05075330287218094,-0.021411605179309845,-0.03178327530622482,-0.02953537367284298,-0.014434099197387695,-0.026237107813358307,-0.004664593376219273,-0.0257776640355587,0.01052436139434576,0.0011379141360521317,-0.04990481957793236,-0.04988647997379303,-0.048021793365478516,-0.03620520234107971,0.009419011883437634,0.02763858251273632,-0.017821496352553368,0.06296516209840775,0.06061185523867607,0.053094182163476944,-0.0064165941439569,0.02586701326072216,0.01843841001391411,-0.004051364958286285,-0.024171197786927223,-0.003155801445245743,-0.014210552908480167,-0.011642355471849442,-0.04834569990634918,-0.023258330300450325,-0.021188445389270782,-0.07347240298986435,-0.03571942448616028,-0.03577151149511337,-0.04389043524861336,-0.0525992177426815,-0.02727993205189705,-0.01806848868727684,-0.026962123811244965,0.0012949437368661165,-0.0011388551210984588,-0.036791782826185226,-0.030175572261214256,-0.01968284510076046,0.07480674237012863,0.0016768771456554532,0.03421207144856453,0.041346415877342224,-0.012452464550733566,0.025722280144691467,0.04837767034769058,-0.014536676928400993,-0.007077317219227552,0.009175468236207962,0.03772474452853203,0.028464702889323235,-0.021315569058060646,-0.022350437939167023,-0.03035755641758442,-0.04264983534812927,-0.04728544130921364,-0.020333483815193176,-0.020633870735764503,0.009019795805215836,-0.011591480113565922,-0.01534319669008255,0.012946589849889278,0.012520049698650837,-0.013413800857961178,0.007484002970159054,-0.007159752771258354,0.0343705452978611,0.030270570889115334,0.017921864986419678,0.014737452380359173,0.04781185835599899,0.03133605793118477,0.07029500603675842,0.03875001147389412,0.05058944970369339,0.032315872609615326,0.033889055252075195,0.04190549626946449,0.01235450990498066,0.024922318756580353,0.07070440798997879,0.024593589827418327,-0.006030901800841093,-0.02790452167391777,-0.029452189803123474,-0.0336623415350914,-0.0010989534202963114,-0.008207054808735847,0.016767676919698715,-0.03556236997246742,0.021630752831697464,0.034303199499845505,-0.0009336002403870225,0.021808423101902008,0.019911643117666245,0.02144622802734375,0.05806174501776695,0.04404277727007866,0.06101973354816437,0.0489010326564312,0.054410841315984726,0.04265051707625389,0.027449380606412888,0.03893261030316353,0.06015239655971527,0.017028801143169403,0.04977458715438843,0.03836231306195259,0.04619133844971657,0.036796685308218,-0.004670048598200083,-0.03281791880726814,-0.06788429617881775,-0.032680872827768326,-0.03391439467668533,0.01598418690264225,-0.04994163289666176,-0.02154596894979477,0.0009343498386442661,0.026738116517663002,-0.02226489968597889,0.002100668614730239,-0.005395893938839436,0.022746820002794266,-0.03386511281132698,0.014407471753656864,0.015353517606854439,-0.007526613771915436,0.015249951742589474,0.08108683675527573,0.04195782169699669,0.05198051035404205,0.06029057875275612,-0.01606571674346924,0.022926095873117447,-0.007380323950201273,-0.006178166717290878,-0.008177479729056358,-0.02109832689166069,-0.02889282815158367,-0.04152744263410568,0.008911690674722195,-0.043616797775030136,-0.04748087748885155,-0.04321076348423958,0.008264012634754181,0.014197491109371185,-0.025924474000930786,-0.013715298846364021,-0.06487727910280228,-0.04618828371167183,-0.0348600372672081,0.008363844826817513,-0.04062385857105255,0.003247183747589588,-0.04116896539926529,0.028321458026766777,0.04710422456264496,0.024168232455849648,0.01178993284702301,-0.0017343461513519287,0.028686437755823135,-0.01595488004386425,-0.02664075791835785,-0.010344859212636948,0.014066382311284542,-0.01570403017103672,-0.03843304514884949,-0.024321937933564186,-0.017496276646852493,-0.03737277165055275,-0.03490634635090828,-0.0005324737285263836,-0.04125550389289856,0.02557838335633278,0.011616726405918598,-0.04499327391386032,-0.05284176021814346,-0.023323120549321175,-0.03226426988840103,-0.019819702953100204,-0.07356526702642441,-0.05200672894716263,-0.07958042621612549,-0.07232912629842758,-0.014881202019751072,-0.06721054017543793,-0.05889899283647537,-0.03845936432480812,0.023889202624559402,-0.03677390515804291,-0.01581040397286415,-0.010667013004422188,-0.0140692675486207,0.008466588333249092,0.014156302437186241,-0.014131706207990646,-0.03761117905378342,-0.04505232349038124,0.014967238530516624,-0.015063772909343243,-0.025791099295020103,0.009224358014762402,-0.012093260884284973,-0.03263859078288078,-0.08576924353837967,-0.06926357001066208,-0.0401109904050827,-0.07039108872413635,-0.08141341060400009,-0.07675482332706451,-0.11350198090076447,-0.1336849331855774,-0.11495885998010635,-0.10326405614614487,-0.09088005870580673,-0.050568170845508575,-0.06081925332546234,-0.042511772364377975,0.005854933988302946,-0.026962710544466972,0.022381095215678215,0.037104230374097824,-0.04788735881447792,0.0013085976243019104,-0.031861789524555206,-0.04206013306975365,-0.03811429440975189,-0.04630200192332268,-0.04665320739150047,-0.049564216285943985,-0.03330150991678238,-0.06135296821594238,-0.058194562792778015,-0.08196660876274109,-0.03146626427769661,-0.046660542488098145,-0.005494283977895975,-0.02822974883019924,-0.050815142691135406,-0.09316415339708328,-0.12032569199800491,-0.14496499300003052,-0.06620749086141586,-0.08763553947210312,-0.027593204751610756,-0.03837376832962036,-0.04754238575696945,-0.0030932931695133448,0.016199370846152306,-0.017194176092743874,0.000701740849763155,-0.04823141172528267,-0.01865481771528721,-0.02536417730152607,-0.012959260493516922,0.0076373559422791,-0.018045319244265556,-0.022550107911229134,-0.022726574912667274,-0.09504397958517075,-0.04847892373800278,-0.007809237577021122,-0.00027626342489384115,0.01685759238898754,0.02141794189810753,-0.04776614531874657,-0.0023935851640999317,-0.052479278296232224,-0.08245375752449036,-0.06582300364971161,-0.05741638317704201,-0.07859791070222855,-0.027717960998415947,-0.08275153487920761,-0.04636763781309128,-0.028727158904075623,-0.02749960869550705,-0.03275652229785919,-0.0184702780097723,0.006196016911417246,-0.01705445535480976,0.013370177708566189,-0.04701729491353035,-0.0010431018890812993,-0.03289470076560974,-0.03074081428349018,-0.017772145569324493,-0.06579548120498657,-0.022480344399809837,0.041367895901203156,-0.025627225637435913,0.02695665881037712,-0.005269251763820648,-0.03571682423353195,-0.025590991601347923,-0.049923595041036606,-0.008037107065320015,-0.04196716845035553,-0.07286746054887772,-0.049315836280584335,-0.057882048189640045,-0.04719412326812744,-0.020322376862168312,-0.026107307523489,0.012072309851646423,0.0003846547333523631,-0.0015051520895212889,-0.014329270459711552,-0.01268717274069786,0.005940402392297983,-0.04388948529958725,-0.009052879177033901,0.016921289265155792,-0.014155397191643715,-0.005163481459021568,-0.007182382978498936,0.007440314628183842,0.009617223404347897,0.025090811774134636,-0.005448660813271999,-0.004272728692740202,0.0042804512195289135,-0.02839461900293827,-0.05580465868115425,-0.041299983859062195,-0.059485260397195816,-0.05423200502991676,-0.016337398439645767,-0.02873046323657036,-0.05818890407681465,-0.0010099023347720504,-0.020441299304366112,-0.04364127665758133,0.018727483227849007,0.058571383357048035,-0.011403081938624382,0.0037110403645783663,0.0037719509564340115,0.009787701070308685,-0.03572901338338852,-0.046528805047273636,-0.025146448984742165,0.013923171907663345,-0.0035536247305572033,0.02159067615866661,0.01445847563445568,0.002290247241035104,-0.012699454091489315,0.012055765837430954,-0.033409781754016876,-0.010190825909376144,-0.043961767107248306,-0.0431833416223526,-0.07214408367872238,-0.03709829971194267,-0.058346375823020935,-0.05839863047003746,-0.01308905053883791,-0.003087935969233513,-0.01059426087886095,0.0016410303069278598,0.01807209849357605,0.021444188430905342,0.033812265843153,0.03827470913529396,-0.026405751705169678,-0.030759651213884354,0.008556179702281952,-0.040252603590488434,0.023368827998638153,-0.01675914041697979,0.023553194478154182,-0.060362353920936584,-0.0016352817183360457,-0.0027215145528316498,-0.03598436340689659,-0.06331214308738708,-0.059437721967697144,-0.10652902722358704,-0.10495589673519135,-0.09479506313800812,-0.06773552298545837,-0.04605743661522865,-0.031165199354290962,-0.0448165088891983,0.03256358951330185,0.010478733107447624,-0.042030658572912216,-0.008805236779153347,-0.0425633043050766,-0.017818698659539223,0.02854197844862938,-0.005103643983602524,0.0026789249386638403,0.010416748002171516,0.004023878835141659,-0.00736579392105341,-0.01614927314221859,0.022087248042225838,-0.026814455166459084,-0.0065519362688064575,-0.03233210742473602,-0.03457998111844063,-0.03436776250600815,-0.07894908636808395,-0.0890260562300682,-0.08844667673110962,-0.08504847437143326,-0.07712896168231964,-0.06296856701374054,-0.00228849146515131,-0.0003387214965187013,0.02297034300863743,0.00034363416489213705,-0.03295481950044632,-0.032548557966947556,-0.0032402160577476025,-0.009986196644604206,0.02674546279013157,0.03209385648369789,-0.007086972240358591,-0.00994178093969822,-0.04492618143558502,-0.01521514356136322,0.005049380008131266,-0.04712542146444321,0.020636433735489845,-0.032228436321020126,0.008871526457369328,0.012677958235144615,0.018622104078531265,-0.003226030617952347,-0.00960767176002264,-0.014139034785330296,0.007223906461149454,0.008785633370280266,-0.024247469380497932,0.0011885316343978047,-0.01808750070631504,0.025340422987937927,-0.0024845972657203674,-0.04803578555583954,0.0007865664665587246,-0.02561870776116848,-0.01117478683590889,-0.04576781019568443,0.011700364761054516,-0.032353904098272324,-0.04200834035873413,-0.0493013933300972,-0.03832046315073967,-0.0286706555634737,-0.04239259287714958,0.0015722671523690224,0.047974180430173874,0.005247507244348526,0.007239496801048517,0.012312926352024078,0.017667703330516815,-0.0012694241013377905,-0.012454640120267868,0.02857654169201851,0.07986116409301758,0.03841371834278107,0.05957838520407677,0.013979182578623295,0.007178431376814842,0.025515582412481308,-0.03299173712730408,0.02211025543510914,-0.021287767216563225,0.04890751466155052,0.009475245140492916,0.00919383205473423,-0.03408757969737053,0.0214524082839489,-0.023180050775408745,0.004870784003287554,0.007775770500302315,-0.02830398455262184,0.018061866983771324,-0.012658560648560524,0.02918188087642193,0.02102161943912506,0.01670694723725319,0.006979404948651791,0.0127217136323452,-0.008386671543121338,0.02253335528075695,0.04194057360291481,0.08686082810163498,0.07706353068351746,0.07962490618228912,0.0422760471701622,0.023229006677865982,-0.01291250716894865,0.0014981875428929925,0.030795902013778687,0.014209202490746975,0.025942368432879448,0.01568019762635231,0.001670447876676917,0.028162958100438118,-0.024527067318558693,0.017776887863874435,0.012910522520542145,-0.017624441534280777,0.007700969465076923,-0.019115114584565163,-0.034756049513816833,-0.019334737211465836,-0.009130353108048439,0.04000082239508629,-0.0036034509539604187,0.017873380333185196,0.03925422951579094,0.05421047285199165,0.07681387662887573,0.014956404455006123,0.03066146746277809,0.04483021795749664,0.0310733150690794,0.08639197796583176,0.03775813803076744,0.04178665205836296,0.005475182551890612,-0.013645805418491364,-0.008794588036835194,0.01627553626894951,-0.011790519580245018,-0.027911139652132988,-0.0326475091278553,-0.034572746604681015,-0.009666435420513153,0.004452834837138653,-0.04283010587096214,-0.0030886088497936726,-0.038241028785705566,0.013846071437001228,0.036991845816373825,0.005894676316529512,0.05420740321278572,0.038986384868621826,0.0406859889626503,0.07543450593948364,0.060919374227523804,0.044601209461688995,0.029390227049589157,0.06543749570846558,0.07304729521274567,0.031798411160707474,0.003806627821177244,0.03937676176428795,0.012740196660161018,0.0015889500500634313,0.017586100846529007,-0.020927386358380318,0.01761447824537754,-0.006457021925598383,-0.005145424045622349,-0.03542280197143555,-0.02160877361893654,0.0124612245708704,-0.012983177788555622,-0.01621905341744423,-0.046562258154153824,-0.011583803221583366,-0.018068913370370865,-0.011817972175776958,-0.008739978075027466,-0.00048395339399576187,0.02989397756755352,0.0453764945268631,0.013424623757600784,0.029628798365592957,0.01786448433995247,0.03736686706542969,0.04160897806286812,0.029622908681631088,0.0917709618806839,0.0480114221572876,0.01510856207460165,-0.0558939129114151,-0.026766955852508545,-0.0001046981051331386,-0.03362631797790527,0.02538304403424263,0.015351416543126106,-0.017229247838258743,-0.0156637504696846,-0.04002899304032326,0.01783445104956627,-0.018630679696798325,-0.0345032699406147,0.01468458492308855,-0.020140565931797028,-0.0062657687813043594,-0.0019838809967041016,0.03868976607918739,0.025522951036691666,0.021341746672987938,0.022128313779830933,-0.008514252491295338,0.01662030816078186,-0.041853465139865875,-0.041766587644815445,0.0012410441413521767,0.006950370967388153,-0.03714067116379738,-0.036460839211940765,-0.0414864644408226,-0.027027107775211334,-0.015499684028327465,-0.01501290500164032,0.0188568364828825,-0.022972246631979942,-0.009500918909907341,0.012528099119663239,0.008376209996640682,0.007487283553928137,0.013985184952616692,-0.04304052144289017,0.009456966072320938,-0.02147546038031578,-0.012521629221737385,-0.037295546382665634,-0.01202318724244833,0.004985207226127386,-0.0303491298109293,-0.04127709940075874,0.0250910185277462,-0.014968862757086754,0.03380950167775154,0.013128715567290783,0.02337997406721115,0.012512301094830036,0.018460795283317566,-0.007480766158550978,-0.01696948893368244,-0.015689944848418236,0.015002566389739513,-0.017209939658641815,-0.011893055401742458,0.01655155047774315,0.018193773925304413,0.015671368688344955,-0.04150400683283806,-0.022115398198366165,0.005003603175282478,-0.04900956526398659,-0.0005852822214365005,-0.026392970234155655,-0.009818511083722115,-0.028870312497019768,-0.022260621190071106,-0.03128600865602493,-0.008663095533847809,0.00593864219263196,-0.04361540079116821,-0.03084234520792961,-0.03438569977879524,-0.004287328105419874,-0.030734805390238762,-0.023658767342567444,-0.03570534288883209,-0.009363261051476002,0.0067847310565412045,-0.03825800493359566,-0.05115199461579323,-0.008954898454248905,0.0173959918320179,-0.004411513917148113,-0.04193226620554924,0.0008450974710285664,0.004160750657320023,-0.025366639718413353,0.0078074270859360695,-0.029042383655905724,0.007321658078581095,-0.008208279497921467,-0.018025720492005348,-0.0021739336661994457,0.00152668880764395,0.0202006958425045,-0.013342446647584438,-0.016691060736775398,-0.0037864437326788902,-0.00881215464323759,0.04067663475871086,0.031809113919734955,0.005339701194316149,0.02922919951379299,-0.027641838416457176,0.03195446357131004,0.015204942785203457,-0.018858211115002632,0.0021951834205538034,-0.0063272700645029545,0.024985941126942635,0.00351473456248641,0.0024451615754514933,-0.00584071222692728,0.0020358760375529528,0.018512193113565445,-0.009800593368709087,-0.02382245473563671,0.02232115902006626,-0.009378128685057163,0.03244996443390846,0.03276808187365532,-0.014186661690473557,0.03266612067818642,0.0321425125002861,-0.016586627811193466,0.011369915679097176,0.02686339057981968,0.026730122044682503,0.029625901952385902,0.018542053177952766,-0.01491954643279314,0.03273726999759674,0.040228404104709625,0.03145527094602585,0.04717356339097023,0.004706187639385462,-0.009094213135540485,0.025561055168509483,-0.020449863746762276,-0.01108893658965826,-0.010598049499094486,0.001571652595885098,-0.017628798261284828,0.02712736278772354,-0.00543595477938652,-0.00980364065617323,0.02106209099292755,-0.0037802541628479958,-0.01317296177148819,0.012752366252243519,0.03543268144130707,-0.020915474742650986,-0.02277669496834278,-0.005880297161638737,0.003944689407944679,-0.0030815990176051855,-0.0100100701674819,-0.020313965156674385,0.04728987067937851,0.06360830366611481,0.03305907920002937,0.05477272346615791,0.017739923670887947,0.05976244434714317,0.030719559639692307,0.01708412915468216,0.035462889820337296,-0.0037732759956270456,-0.003834571922197938,0.0013005872024223208,-0.02718852460384369,0.02936139889061451,-0.00163272547069937,0.02622426487505436,-0.020842203870415688,-0.03371043875813484,-0.00048414437333121896,0.0014603529125452042,-0.0018723424291238189,-0.034413713961839676,-0.03234487771987915,-0.02138649858534336,-0.014910165220499039,-0.06482059508562088,-0.08271925151348114,-0.03247449919581413,-0.0440085269510746,0.004519006237387657,-0.0032125250436365604,0.05342724174261093,0.08756046742200851,0.08485269546508789,0.05171425640583038,0.039372049272060394,0.008836835622787476,-0.024852443486452103,0.0024007849860936403,0.01241991575807333,0.01569598913192749,-0.02806401252746582,-0.019977884367108345,-0.00888892263174057,-0.020773904398083687,-0.06816917657852173,-0.057545844465494156,-0.05312015116214752,-0.07075151056051254,-0.08536355197429657,-0.06364121288061142,-0.06253127008676529,-0.05855715647339821,-0.0740007609128952,-0.02920965850353241,0.0015193617437034845,-0.006445871200412512,0.019763382151722908,0.03202494606375694,0.015545421279966831,0.05331749469041824,0.047275468707084656,0.07320701330900192,0.039721786975860596,-0.0026392582803964615,-0.021848345175385475,0.010525866411626339,0.039777301251888275,-0.011615446768701077,-0.025083215907216072,0.024539263918995857,0.0205695778131485,-0.036985255777835846,-0.05484670400619507,-0.025559797883033752,-0.08169109374284744,-0.039806265383958817,-0.05987120419740677,-0.029238129034638405,-0.006970876362174749,-0.022988304495811462,-0.02237699180841446,-0.031420979648828506,-0.03015628084540367,0.0034741905983537436,0.02848239243030548,0.021578650921583176,0.06037312373518944,0.05864718556404114,0.04070119932293892,0.05733692646026611,0.05101137235760689,0.0044446783140301704,-0.00013067442341707647,-0.0028923354111611843,-0.014718695543706417,0.0161533672362566,-0.00603529391810298,-0.045329611748456955,0.012474636547267437,-0.03328380733728409,-0.02981053665280342,-0.058545976877212524,-0.08815133571624756,-0.09792129695415497,-0.010452344082295895,-0.0004457418981473893,-0.005664541386067867,0.015995584428310394,-0.02545939013361931,0.05646498501300812,0.045113276690244675,0.019636215642094612,0.0779198557138443,0.05220533907413483,0.05424166098237038,0.04646848887205124,0.011479194276034832,0.08478491008281708,0.05577463284134865,0.06749708205461502,-3.87951877200976e-05,-0.022257020696997643,-0.023930715397000313,0.030052224174141884,0.013343704864382744,-0.003091799560934305,-0.02123897895216942,-0.02797555923461914,-0.08233493566513062,-0.08787447214126587,-0.13569051027297974,-0.09814728796482086,0.0662454292178154,0.060103777796030045,0.048986904323101044,0.037016578018665314,0.05467413738369942,0.025146862491965294,0.05195546895265579,0.06019148975610733,0.07619376480579376,0.07325778901576996,0.085480235517025,0.10571379214525223,0.061060789972543716,0.0715416744351387,0.05028261989355087,0.03682022914290428,0.021243780851364136,0.032341886311769485,-0.027166545391082764,0.027273012325167656,-0.009254919365048409,-0.04780956730246544,-0.017954567447304726,-0.02219824492931366,-0.11914333701133728,-0.13157261908054352,-0.09313752502202988,-0.029821550473570824,0.006939687300473452,0.09570442885160446,0.0732494369149208,0.09461800009012222,0.02799777127802372,0.02755402773618698,0.03818007931113243,0.06926644593477249,0.058927346020936966,0.05104268714785576,0.06743428856134415,0.09237633645534515,0.044977422803640366,0.043081022799015045,0.04802413657307625,0.010425870306789875,0.03403889760375023,0.031215673312544823,0.03132529556751251,0.03736031427979469,-0.0023851245641708374,0.024461355060338974,-0.0077249957248568535,-0.08247704803943634,-0.10353483259677887,-0.09692835062742233,-0.16102640330791473,-0.05504506081342697,0.04696143791079521,0.07476574182510376,0.0643886923789978,0.03871770203113556,0.06395845860242844,0.016908826306462288,-0.01733366586267948,-0.023837551474571228,-0.03073614463210106,-0.09151060879230499,-0.02837025746703148,-0.018975991755723953,0.00899448525160551,0.0044202799908816814,0.03522428125143051,0.05199413374066353,0.05059657618403435,0.024007072672247887,0.030654797330498695,0.020480666309595108,0.03642570599913597,-0.03399614989757538,0.008678288199007511,-0.018492022529244423,-0.11000353842973709,-0.1078752800822258,-0.07842922955751419,-0.011919129639863968,-0.019585339352488518,0.06534101814031601,0.030424287542700768,0.02591641992330551,0.012445447966456413,-0.019377879798412323,-0.10702068358659744,-0.11351428925991058,-0.1271536499261856,-0.08447925746440887,-0.10259585827589035,-0.049982160329818726,-0.045357756316661835,-0.0005508799222297966,0.039498843252658844,0.09241754561662674,0.024401389062404633,0.029291123151779175,0.03291383385658264,0.02977844700217247,0.014412936754524708,-0.029343029484152794,-0.03179112821817398,0.0209641233086586,-0.043741874396800995,-0.0517384372651577,-0.11021540313959122,-0.046434901654720306,-0.04934205487370491,-0.03781701624393463,0.026085224002599716,0.03399902954697609,0.07480410486459732,-0.05215339735150337,-0.08580514043569565,-0.13828547298908234,-0.1553449034690857,-0.14743730425834656,-0.07289187610149384,-0.06499205529689789,-0.10072121769189835,-0.0033875368535518646,-0.021519243717193604,0.037067487835884094,0.005045440513640642,0.023578796535730362,0.02621011808514595,0.00768360635265708,0.028106456622481346,0.010133471339941025,0.0028918127063661814,-0.010712104849517345,0.04108720272779465,-0.025495266541838646,-0.037233904004096985,-0.05868685618042946,-0.06368155032396317,-0.03490237891674042,-0.04298170283436775,0.0380571186542511,0.04722857102751732,-0.026820778846740723,-0.04658404365181923,-0.07483936846256256,-0.0734686329960823,-0.12889364361763,-0.08420556038618088,-0.07340386509895325,-0.08226661384105682,-0.05118795856833458,-0.06427472829818726,-0.018286390230059624,0.010943464934825897,0.010809277184307575,-0.027819981798529625,-0.024444138631224632,0.04016461968421936,-0.0027452947106212378,0.04505050554871559,0.03995071351528168,0.014244724996387959,-0.0005220618913881481,-0.004727721214294434,-0.0208941288292408,-0.06265085190534592,-0.06894518435001373,0.007421162910759449,0.08388279378414154,0.04153945669531822,0.04370405897498131,-0.04835700988769531,-0.03745685890316963,-0.05897461250424385,-0.06707015633583069,-0.06688017398118973,-0.11978606879711151,-0.13135357201099396,-0.08769983798265457,-0.051704440265893936,0.007959031499922276,0.037605974823236465,0.036356642842292786,0.04172418639063835,0.03519614040851593,0.02302103117108345,-0.005326642654836178,-0.0010600779205560684,0.023389607667922974,0.018941810354590416,-0.05587339401245117,-0.08887039124965668,-0.06712694466114044,0.004185479134321213,-0.027597874402999878,0.0729515329003334,0.10794699192047119,0.04513317346572876,-0.020961791276931763,-0.023023877292871475,-0.06540276855230331,-0.03169114887714386,0.015915267169475555,-0.04304557666182518,-0.06733899563550949,-0.0681748166680336,-0.09210576117038727,-0.016710883006453514,-0.02263863943517208,6.938282604096457e-05,-0.004507515113800764,0.010216202586889267,-0.025373093783855438,0.013943544588983059,0.036460116505622864,-0.04793749377131462,0.008292981423437595,-0.04445991665124893,-0.006017324049025774,-0.033702727407217026,-0.02114979550242424,0.0003975972649641335,0.07482149451971054,0.08187969774007797,0.07238393276929855,0.05162930116057396,-0.09415896981954575,-0.07164660841226578,-0.03942856937646866,-0.0016019869362935424,-0.03316885977983475,-0.06112612783908844,-0.04267530143260956,-0.071292944252491,-0.07372420281171799,-0.031782060861587524,0.01039325725287199,0.015858851373195648,0.01595248654484749,-0.028791509568691254,0.018957965075969696,-0.02292013168334961,0.0031423356849700212,-2.6486872229725122e-05,0.007268620654940605,-0.03256317228078842,-0.028646869584918022,-0.006804691627621651,0.06885295361280441,0.05847867578268051,0.16469143331050873,0.15352366864681244,0.07134542614221573,-0.04272545874118805,-0.08603086322546005,-0.07775722444057465,0.00233178841881454,-0.029679283499717712,-0.045494478195905685,-0.06647424399852753,-0.028334353119134903,-0.009481165558099747,-0.055225860327482224,0.005254583898931742,0.007070645689964294,-0.010868714191019535,0.03121306747198105,-0.02791876532137394,0.017529837787151337,0.02504570037126541,0.00281906989403069,-0.016371838748455048,0.0042333221063017845,0.05875768885016441,0.0054455408826470375,0.047789718955755234,0.09409372508525848,0.14269520342350006,0.18689338862895966,0.13108722865581512,-0.016805797815322876,-0.10370638966560364,-0.13930556178092957,-0.09671646356582642,-0.040827326476573944,-0.015967516228556633,-0.03128634765744209,-0.0008476506336592138,0.0227514561265707,0.00595290819182992,-0.0405094176530838,0.0020715403370559216,-0.0032554124481976032,-0.013472852297127247,0.0011423435062170029,-0.029919810593128204,-0.0009431127109564841,-0.0036259200423955917,-0.03891417384147644,-0.021098656579852104,-0.008285907097160816,0.05536108836531639,0.10167604684829712,0.027607647702097893,0.1126393973827362,0.10223441570997238,0.15002839267253876,0.07417947798967361,-0.05897114425897598,-0.17677800357341766,-0.0821232944726944,-0.01946287788450718,-0.020372791215777397,-0.029847515746951103,-0.010656801983714104,0.07978567481040955,0.02395617589354515,-0.033025696873664856,0.025018010288476944,-0.010412098839879036,-0.009844940155744553,0.04398345202207565,0.02246609702706337,-0.029795629903674126,0.035646095871925354,0.02515597827732563,-0.02532648667693138,-0.013196026906371117,0.012466301210224628,0.01798081584274769,0.023554440587759018,0.09950043261051178,0.09070323407649994,0.08151283860206604,0.10770852863788605,0.012524220161139965,-0.11134271323680878,-0.10599911212921143,-0.10208292305469513,-0.06980564445257187,-0.02747897431254387,0.0031382376328110695,0.012484348379075527,0.0553949773311615,0.04162585362792015,0.011534948833286762,0.05786847323179245,0.034908849745988846,0.04484863951802254,0.041188571602106094,0.024106914177536964,0.028755662962794304,-0.012244559824466705,-0.02758578397333622,-0.012229490093886852,-0.040073998272418976,-0.022588543593883514,0.04070281982421875,0.03234856203198433,0.04909500479698181,0.06156809628009796,0.0997222438454628,0.08281641453504562,0.012082042172551155,-0.09611258655786514,-0.08980710804462433,-0.047104887664318085,-0.037427645176649094,0.019101647660136223,0.052665773779153824,0.03943157568573952,0.08428502827882767,0.04321843385696411,0.07436978816986084,0.020693283528089523,0.05536940321326256,-0.005880401469767094,-0.016004793345928192,-0.012240182608366013,-0.004890739917755127,0.020021313801407814,0.014139407314360142,0.030874954536557198,0.02112012356519699,0.009326889179646969,0.05597882717847824,0.03995802253484726,0.03656427189707756,0.015085014514625072,0.05774988606572151,0.03378012403845787,-0.008723555132746696,0.023675192147493362,-0.044918257743120193,0.0001075778782251291,-0.023474685847759247,0.003627908183261752,0.04905309900641441,0.03905966877937317,0.04098186641931534,-0.016456574201583862,-0.0012060735607519746,-0.0025636740028858185,0.049992065876722336,-0.011518112383782864,0.0372474268078804,0.02401600033044815,0.008879500441253185,0.01783696562051773,-0.012800662778317928,0.0387132465839386,0.06579787284135818,0.0898820012807846,0.02944028750061989,-0.0036514517851173878,0.010969309136271477,0.00566418981179595,0.031660404056310654,0.07483882457017899,0.03916291892528534,0.035050779581069946,-0.004063139669597149,0.011444042436778545,0.023461589589715004,-0.010010736994445324,0.041789427399635315,0.012048887088894844,0.0331634022295475,-0.002620596904307604,-0.025680314749479294,0.0369243361055851,0.00048133934615179896,-0.007899750024080276,-0.020562641322612762,0.007722941227257252,0.028437012806534767,0.01483477558940649,-0.017998555675148964,-0.008619205094873905,0.020901277661323547,0.05370824784040451,0.041976895183324814,-0.009473081678152084,-0.03316192328929901,0.05665281414985657,0.018767371773719788,0.028515497222542763,0.09347936511039734,0.04617787525057793,0.012748257257044315,-0.015955453738570213,-0.016302797943353653,-0.06895744055509567,-0.024505380541086197,0.03699804097414017,-0.004230979830026627,-0.06879240274429321,-0.012776121497154236,0.013023877516388893,0.04843799024820328,0.03539154306054115,0.037317100912332535,-0.02382785640656948,-0.02439543791115284,0.0173066146671772,0.00553373247385025,-0.0004883082001470029,-0.0013916282914578915,-0.017764853313565254,-0.049496158957481384,-0.03811958432197571,-0.02949940785765648,0.005031189881265163,0.04024029150605202,0.07410664856433868,0.12640663981437683,0.0810486227273941,0.051277853548526764,0.0021006171591579914,-0.05414145812392235,-0.009745455347001553,0.03163724020123482,0.0002749979612417519,-0.06322919577360153,-0.019728904590010643,0.004800131544470787,-0.020907672122120857,0.001962474314495921,-0.01878928765654564,0.005754260811954737,0.028094450011849403,0.003951360005885363,-0.006083691492676735,-0.005246775224804878,0.036157652735710144,0.027751795947551727,-0.03642205521464348,-0.05530369281768799,-0.051524221897125244,-0.08878091722726822,-0.002743992954492569,0.012015022337436676,0.057348303496837616,0.04068375378847122,0.02021661214530468,0.014773580245673656,0.01156681403517723,-0.024003006517887115,-0.008118494413793087,-0.03665924817323685,-0.02247549034655094,-0.006029488984495401,-0.016674306243658066,-0.005834254436194897,-0.018237534910440445,0.004872296936810017,0.03452057018876076,0.03860046714544296,0.00842924602329731,0.000724511337466538,-0.018884750083088875,-0.009002950973808765,-0.018743501976132393,-0.02987615577876568,0.019747275859117508,-0.010780680924654007,-0.01170682068914175,0.007696846965700388,-0.050565775483846664,0.005011613015085459,0.025466568768024445,-0.02922803722321987,-0.04235656559467316,-0.0717850998044014,0.012881255708634853,-0.02191498503088951,0.035321515053510666,0.034369807690382004,0.025848738849163055,0.024735545739531517,0.01387765072286129,0.02250894531607628,0.032393570989370346,0.03370336443185806,0.012819780968129635,0.036086030304431915,0.03217111900448799,0.006810658145695925,0.03697017952799797,0.026656804606318474,0.004883117042481899,-0.01300114020705223,0.03591703251004219,0.013570643030107021,0.016914881765842438,0.007658970542252064,-0.02270788885653019,-0.010277177207171917,-0.022374987602233887,0.014652438461780548,0.032923195511102676,0.021596133708953857,-0.029293393716216087,-0.004580537788569927,0.03303566202521324,0.032662227749824524,-0.012803925201296806,0.029658015817403793,0.015252703800797462,0.010491138324141502,0.015746088698506355,0.00977394450455904,-0.01221273373812437,0.034651461988687515,0.030101031064987183,0.0081325089558959,0.013329438865184784,0.013857996091246605,-0.014367172494530678,-0.0006803025607950985,-0.00017362070502713323,0.01980559341609478,-0.0031358692795038223,-0.024427814409136772,0.0224978756159544,-0.003685822943225503,-0.010470140725374222,-0.04076451435685158,0.0026425058022141457,-0.01105332002043724,-0.04428813233971596,-0.013403303921222687,0.012506397441029549,-0.031931422650814056,-0.008928371593356133,-0.0010220191907137632,-0.04233581945300102,-3.97565308958292e-05,0.0032634593080729246,0.008891562931239605,-0.014632857404649258,